1204 128
</s> 0.003127 0.003453 -0.002992 -0.002561 0.001068 0.002360 0.000735 0.000165 -0.002815 0.001733 -0.003403 0.000976 -0.000587 -0.000748 -0.002590 -0.001470 0.002015 0.002364 0.002320 0.001248 0.001207 -0.002971 -0.003200 0.003883 0.002970 0.002414 -0.000472 0.003137 -0.000387 0.000574 -0.000117 -0.002331 0.001025 -0.001045 -0.002989 0.003714 0.003421 -0.000856 -0.000177 0.000398 -0.002842 -0.003131 0.003558 0.000049 -0.002017 -0.002377 -0.002403 0.001326 0.000157 0.001040 -0.003292 -0.002975 -0.000102 0.000893 0.001992 -0.002477 0.003187 0.000724 0.000875 -0.000475 0.002333 -0.001787 -0.001639 0.001686 -0.000588 0.000805 0.001410 -0.003194 -0.001549 0.002276 0.003306 0.003072 -0.002380 -0.001647 -0.000710 0.001564 -0.002960 0.002342 0.002178 -0.001249 -0.001212 -0.001749 0.003304 0.003056 -0.000922 0.003293 0.003766 0.001418 0.003893 -0.002431 -0.001197 -0.001646 -0.002271 0.002199 0.001234 0.000332 -0.001714 0.001191 0.002390 0.000151 0.001781 -0.003869 0.003371 0.000375 -0.001431 -0.001628 -0.000584 -0.002293 -0.003414 -0.002216 0.003341 -0.001383 -0.002093 0.001810 -0.001331 0.003716 -0.001254 -0.003585 0.002122 -0.000058 -0.002726 0.000762 0.001127 -0.000376 0.001425 -0.003092 0.000688 0.001419 
50 -0.098036 -0.094064 -0.232906 -0.085955 0.241630 -0.042523 -0.088060 0.060675 0.190088 0.240406 0.103032 0.040016 0.082915 0.245061 0.058318 0.272432 -0.116190 -0.149130 0.170040 -0.017618 -0.242990 -0.005250 -0.018191 0.164614 -0.007754 -0.156563 -0.054539 -0.060808 0.034009 0.087840 -0.103138 -0.016407 -0.038550 0.077370 0.109370 0.074205 -0.167107 0.005852 -0.074162 0.021460 0.055855 -0.019971 0.016683 -0.412685 -0.110918 0.173644 0.017796 -0.206379 -0.182142 0.272470 0.396113 -0.047518 0.214537 0.045954 0.165172 0.183283 -0.163128 0.020720 0.027545 0.177170 -0.042802 0.029970 -0.000652 0.093220 -0.225193 0.058958 0.138182 -0.109062 0.029389 -0.044692 -0.245904 0.028065 -0.151899 0.079576 0.117846 -0.358561 0.024150 -0.042015 0.023619 -0.140142 0.116508 -0.029056 -0.601288 0.048728 0.091920 -0.089602 -0.089681 0.024320 0.159762 -0.002573 0.148317 -0.037419 0.248680 -0.109562 0.131881 0.308144 0.088723 0.083164 -0.025333 -0.191147 0.010897 0.283828 -0.053016 -0.022314 0.121514 -0.024882 -0.076963 0.025542 -0.044128 0.200012 -0.045505 0.176247 0.060626 0.045568 -0.058359 -0.030147 -0.150915 0.258278 -0.207567 -0.237335 0.091393 -0.121736 0.137961 0.131108 -0.028625 -0.117561 -0.190627 -0.088282 
100 -0.292319 0.119568 0.135319 -0.260616 -0.004186 0.329264 -0.114297 -0.352774 0.176648 -0.047907 -0.145652 -0.103320 -0.041493 0.038604 -0.169548 -0.219998 0.032277 0.122592 0.105337 0.010050 -0.278731 -0.171462 -0.006433 -0.084819 0.047020 -0.134868 -0.044901 -0.089503 -0.006611 -0.037495 0.020005 0.012531 0.104475 0.226906 0.105249 0.097624 0.049008 0.020823 -0.119887 0.264533 -0.204250 -0.253831 -0.015533 -0.035517 -0.173620 -0.162608 0.152232 0.027051 -0.188884 0.180610 0.144450 -0.047113 -0.181858 0.240240 0.316744 0.076981 -0.087610 -0.100347 -0.117849 0.053354 0.239324 0.206505 0.450038 0.024963 0.069562 0.016632 -0.099501 -0.351473 0.101217 -0.133816 0.099880 -0.077395 -0.120036 -0.337468 -0.223932 -0.135623 0.030766 0.301199 0.095278 0.167278 -0.029972 -0.202433 -0.453099 0.018059 0.247897 0.040133 -0.256089 0.214119 0.241554 -0.179897 0.024235 -0.101192 -0.075176 -0.334469 0.041437 0.213531 -0.132526 0.103321 -0.366987 0.205341 -0.188807 0.298424 -0.322636 -0.108393 -0.213859 -0.087776 0.004592 0.118010 0.047459 -0.017187 -0.033245 0.034331 0.101520 0.234098 0.051424 -0.186652 -0.100365 0.234102 -0.059701 0.207123 0.093278 0.126025 0.013497 -0.025083 0.004642 0.001085 -0.037135 -0.047296 
181 -0.021725 -0.064783 -0.122073 -0.024825 0.089541 0.021031 0.079000 -0.145223 0.463443 0.100783 0.044606 -0.332198 0.312294 0.029875 -0.287852 -0.054290 -0.073830 -0.129162 0.277597 -0.078638 -0.405369 -0.252943 -0.292562 0.126186 -0.149326 0.246930 0.243519 -0.132306 0.137397 0.008575 0.236651 0.112055 0.136584 0.176978 0.049159 0.013446 -0.037220 0.206682 -0.212161 -0.124247 0.069382 -0.359280 -0.146823 0.131245 0.256454 -0.084965 0.079936 0.030228 -0.033913 -0.034147 0.158352 -0.009647 0.284167 0.252272 0.045916 0.041369 -0.146229 -0.076544 -0.194930 -0.083814 0.101770 0.045299 0.179036 -0.099447 -0.198421 -0.116821 -0.042710 0.204363 -0.031202 -0.075252 -0.172104 0.070887 0.141934 -0.058497 -0.042924 -0.123224 0.188309 -0.021180 -0.055415 0.364288 -0.150320 -0.058265 -0.555266 0.099744 -0.021396 0.129091 -0.139522 -0.141772 0.117263 -0.055720 0.162197 -0.013113 0.021414 -0.081594 0.113880 0.389277 0.181874 -0.157817 -0.006603 -0.041683 0.279449 0.145313 -0.012112 0.030872 0.055351 0.176392 -0.252792 0.128149 0.153861 0.066758 -0.025573 -0.120708 0.054101 0.047630 0.198113 -0.061251 0.084409 0.044189 -0.252687 0.204750 -0.007203 0.003772 0.143957 0.117551 0.230188 -0.157809 -0.182876 0.084018 
258 -0.307778 0.136943 -0.047010 0.196840 -0.031039 -0.134377 0.129044 -0.094388 0.150547 0.110438 0.396683 -0.306001 0.356966 0.030753 0.034352 0.238395 0.085559 -0.333374 0.277257 0.060916 -0.348888 -0.156732 0.104914 -0.148948 0.313221 0.195002 -0.118009 -0.050167 -0.100200 -0.318267 0.191834 0.045729 0.022611 -0.163143 0.061247 0.185323 -0.212210 -0.096528 0.003346 0.063287 0.256313 -0.148521 -0.164162 -0.044422 0.172833 -0.105831 -0.100129 0.131237 -0.358918 -0.179224 0.168229 -0.011543 -0.152000 0.237028 -0.055370 -0.021481 -0.245123 -0.141989 0.224906 -0.234668 0.098052 0.265042 0.052036 0.352367 -0.362213 0.280066 -0.187489 -0.029328 0.210860 0.038782 -0.088014 0.102648 0.000428 0.173719 -0.110077 -0.096245 0.258810 0.318566 -0.077142 0.063301 -0.009854 -0.047700 -0.312953 0.092326 -0.088005 0.227460 0.112035 -0.436796 0.372152 -0.320136 -0.033500 0.049547 0.071367 -0.112899 -0.051222 0.108809 0.341163 0.080816 -0.300036 -0.017385 -0.018710 0.398781 -0.128186 0.007662 -0.021751 0.251575 -0.174705 -0.124083 0.165190 -0.198603 -0.038522 0.231328 0.187213 0.074362 -0.108588 -0.062771 -0.266738 0.088203 -0.130076 -0.123966 -0.180738 0.121725 0.222986 0.039326 0.069130 0.105657 -0.060049 -0.066112 
1 -0.030334 -0.067549 -0.089505 -0.045147 -0.149857 -0.125603 -0.090411 -0.302148 0.250755 -0.071622 0.218463 -0.101491 0.347940 -0.099930 -0.388275 0.012019 -0.170846 -0.071168 -0.044997 -0.077037 -0.147948 0.158474 -0.201079 -0.264219 0.046180 -0.173749 0.224672 -0.117908 0.102466 0.301814 0.175108 0.253677 0.205563 0.157168 0.057586 0.190965 -0.069509 0.002802 0.007984 0.080792 -0.115746 -0.096659 -0.107507 -0.030547 0.110878 0.056106 0.045476 0.014197 0.065650 0.274543 -0.115997 0.210186 -0.114458 0.118720 0.113185 0.074795 -0.154287 -0.006777 -0.101163 0.060198 0.060302 -0.135593 0.239769 0.207017 -0.237939 -0.108771 -0.026190 0.068462 0.080510 0.113601 0.098101 0.253116 0.161127 0.174118 -0.141392 -0.136995 0.059328 -0.259218 0.122614 -0.052327 0.099224 -0.050217 -0.525950 -0.049345 -0.164780 0.129357 -0.010793 -0.118445 0.164873 -0.121339 -0.088221 -0.218777 0.137592 0.124900 -0.063453 0.195125 0.251085 0.036282 -0.161710 -0.059289 -0.253575 0.212046 -0.140227 0.031345 0.015459 0.113890 -0.080872 -0.046764 0.192358 0.240512 -0.354025 0.221259 -0.048317 0.045365 0.101559 -0.095112 0.148011 0.153472 -0.186564 -0.353347 -0.003371 0.072517 0.273905 0.124769 -0.086530 -0.037225 0.184769 0.137351 
174 -0.023070 0.095911 -0.012361 -0.002398 -0.286715 0.035413 -0.233525 -0.376943 -0.051769 0.060723 0.051201 -0.072120 0.036209 -0.083466 -0.050093 0.262280 -0.141227 0.248409 0.154618 -0.080096 0.191422 0.137637 0.074068 0.121883 0.427639 -0.236857 -0.017686 -0.484994 -0.029813 0.032313 0.073893 -0.112876 0.297985 -0.028036 -0.118272 -0.151706 -0.188974 0.032678 0.101077 0.023598 0.102380 0.011576 -0.002322 -0.067361 -0.182539 0.069552 0.208420 0.081472 0.203199 0.123325 -0.268524 0.301164 -0.079319 -0.038599 0.266240 -0.283307 -0.055602 -0.010122 0.081837 -0.247552 0.025353 0.357026 0.152321 0.306014 0.151346 0.115742 0.019782 0.028097 0.422219 -0.229143 -0.169156 -0.101481 0.298443 -0.059561 -0.064882 0.011988 0.110313 -0.106004 0.264102 -0.422358 0.219022 -0.063279 -0.420644 -0.295314 -0.062790 -0.022692 -0.038835 -0.285701 0.134143 0.018890 0.131626 -0.065256 -0.019118 0.053067 0.128444 0.009507 0.227796 0.008684 -0.146063 -0.143807 0.051590 0.309383 0.086875 0.119737 0.276778 0.003713 0.086223 -0.154667 0.039097 0.073790 -0.238544 0.146926 0.080387 0.025321 0.082361 0.008575 -0.111249 -0.418528 -0.223744 0.019350 0.146417 0.099806 0.152893 -0.196759 -0.028708 0.041759 -0.355004 0.188712 
286 -0.137486 0.314156 0.162188 0.240709 0.203964 0.009236 0.004306 -0.001622 0.037445 0.236190 0.555222 -0.020041 0.120468 -0.067940 0.210882 -0.106783 0.396001 -0.107832 0.347680 0.048572 -0.217253 0.190925 0.026352 -0.037858 0.412602 0.230363 0.017939 -0.211561 0.006009 -0.050659 -0.158006 -0.125616 -0.181285 0.182459 -0.041330 -0.104514 -0.136004 -0.303435 0.067095 -0.084714 0.007002 -0.259637 0.228755 -0.301667 0.179223 -0.296838 -0.045330 -0.040538 -0.113303 -0.007468 0.059883 0.134882 -0.122649 -0.218277 0.121314 -0.073316 -0.329587 -0.010989 -0.138414 -0.038655 0.328175 0.524744 -0.132650 0.341717 -0.103539 0.176675 0.021790 -0.056324 0.156784 0.067068 -0.175413 -0.034171 0.046906 0.137869 0.156989 -0.289772 -0.246979 0.270622 -0.104656 0.416367 0.034818 -0.149962 -0.416025 0.059838 0.036447 0.020020 0.188936 -0.001875 0.326032 -0.039620 -0.301197 0.096813 0.451051 0.014290 0.027501 0.085617 0.351163 0.133225 0.087016 0.193622 -0.228888 0.322717 -0.198000 -0.071561 -0.009499 -0.205539 -0.096738 -0.030672 0.178605 0.128108 -0.180782 0.210645 -0.018962 0.178178 0.013195 -0.343355 0.009312 0.272206 0.154382 -0.269270 0.147643 0.111571 -0.082398 0.164287 -0.278527 -0.065828 -0.302170 -0.053337 
288 -0.516901 0.150149 -0.176870 -0.084576 -0.334437 -0.107948 0.015811 0.021877 0.092878 0.083750 -0.030636 -0.107025 0.389172 0.278360 0.016079 0.107782 -0.017936 -0.126008 0.077082 0.285035 -0.310771 -0.023566 -0.049822 0.115355 0.041091 0.244824 -0.030482 -0.094896 -0.094290 -0.026259 0.352320 0.033693 -0.043935 0.332804 -0.181420 0.213463 0.276339 -0.120956 -0.046297 0.066236 -0.045323 0.136942 0.186424 -0.120546 0.071294 -0.090998 0.026210 0.052906 -0.201985 0.229796 -0.021898 0.479004 -0.277845 0.113939 0.007954 -0.233518 0.068150 -0.055164 -0.058166 0.086199 0.117172 0.486806 0.171257 -0.003327 0.029307 0.111330 0.162486 -0.286564 0.307747 -0.027268 0.139899 0.255237 0.087188 0.011199 0.177806 -0.107654 0.013026 0.418971 0.004470 0.094617 0.258487 0.028127 -0.524652 -0.089622 -0.000911 0.114161 0.263631 -0.329052 0.127940 0.032190 0.059043 0.095953 -0.115163 0.034867 0.252902 0.392355 0.043216 0.382960 -0.164037 -0.102948 -0.052444 0.385153 -0.139766 0.055508 -0.659336 0.085520 0.265725 -0.167654 0.260007 -0.097467 0.083805 0.433877 0.200464 0.062920 -0.002944 -0.176272 0.161441 0.162289 -0.194168 -0.243372 0.162866 0.132649 0.203957 0.035908 0.008469 -0.074157 -0.132964 0.018261 
127 -0.207168 0.074354 0.112911 0.323835 0.168715 0.037208 -0.221088 -0.045859 0.130999 0.026496 0.052163 -0.050909 0.008440 0.285683 -0.305054 0.182807 0.111841 0.152608 0.334403 -0.222204 -0.000810 -0.018793 -0.239749 -0.123146 -0.168906 0.027079 -0.155100 -0.007381 0.126787 0.210037 -0.033700 -0.059673 0.184465 -0.032724 0.144764 0.024830 0.159166 -0.060599 -0.065167 0.282335 -0.075184 -0.125870 0.093478 -0.304190 -0.071138 -0.218903 0.190755 -0.079623 -0.112738 0.345902 0.238852 -0.072527 -0.171653 -0.162484 0.096479 -0.077763 0.084206 0.140778 -0.148733 -0.026783 0.112843 0.258841 0.103847 0.058271 0.272149 -0.030058 -0.051069 -0.272188 0.112015 -0.356186 0.136776 -0.030450 -0.022273 0.166621 -0.060777 -0.009140 -0.050690 0.049398 -0.004920 0.128486 0.099382 0.233877 -0.723363 0.173470 0.028304 -0.168732 0.211636 0.241734 0.193513 -0.041851 -0.114222 -0.254034 -0.217766 -0.113397 -0.143294 0.112388 -0.185635 -0.033061 -0.243392 -0.192930 -0.111954 0.398038 0.006210 -0.104061 -0.129682 -0.141333 -0.187735 -0.109567 -0.132332 -0.011074 -0.015701 -0.114677 0.009434 0.025471 0.065754 0.110503 -0.085334 0.167669 -0.149455 0.083444 -0.107228 0.508352 0.110247 -0.127526 0.082665 0.046378 -0.048679 0.201586 
300 0.116269 0.181928 0.174404 -0.284960 -0.097757 0.136110 0.237994 -0.311634 0.154554 0.194750 -0.060312 -0.208302 0.178710 0.094386 -0.066952 0.309844 0.076331 0.052645 0.446661 0.087430 -0.144067 0.080740 -0.113468 -0.414384 0.152679 0.280050 -0.100885 -0.343754 0.024669 -0.183934 0.417828 0.152737 0.407376 0.043547 -0.132240 -0.088458 0.016891 -0.141749 -0.243185 0.336144 0.247172 0.195214 -0.037498 -0.197360 -0.092525 -0.451070 0.203382 -0.092020 -0.146467 0.096079 -0.140274 0.432494 -0.361026 0.045409 0.011143 0.004746 -0.308390 -0.027680 0.159547 0.014330 -0.026604 0.147873 -0.047777 0.660587 -0.128420 -0.232119 0.096564 -0.054184 0.015074 -0.006788 -0.099481 0.051007 -0.355610 0.216389 -0.036469 0.175196 0.126220 0.018658 0.006397 -0.106078 0.086772 -0.099657 -0.166291 0.179951 -0.070204 0.094517 0.194141 0.016685 0.366838 -0.034662 0.311626 -0.083272 0.213643 -0.008175 -0.040219 0.446278 0.342546 0.146709 -0.391819 -0.089065 -0.184813 0.206076 -0.178200 -0.131943 -0.385869 0.265947 -0.177838 0.007991 0.246314 -0.126560 -0.113221 -0.050706 -0.053598 -0.163603 0.052667 -0.174133 0.098853 -0.166600 0.051712 0.107419 0.069461 -0.026938 0.041892 -0.201779 0.046213 -0.238029 -0.148963 -0.126806 
98 -0.087378 0.029881 -0.261046 -0.187464 -0.085212 -0.019160 -0.294419 -0.199413 -0.093989 -0.057978 -0.053610 -0.117406 0.163629 0.109416 0.233003 -0.109947 0.126313 -0.113535 0.493782 0.204813 -0.063030 0.012471 0.053497 0.028916 -0.172302 0.126389 -0.058697 -0.036813 0.333958 0.053388 -0.125979 -0.281891 0.303395 -0.075691 -0.160545 0.065322 -0.356645 -0.048954 0.110372 -0.260431 -0.034136 -0.062648 -0.135747 -0.276664 -0.423504 -0.156514 -0.089869 -0.166337 0.136120 0.074367 0.029269 0.248217 -0.059599 -0.160122 0.128774 0.068948 0.157018 0.016610 -0.375647 0.006746 0.054671 -0.064815 0.053071 -0.184754 0.280486 0.201592 0.141305 0.063016 0.008755 -0.045101 0.050415 0.138814 -0.314138 -0.333444 0.066954 0.078523 0.106128 0.274472 0.209802 0.048110 -0.081006 -0.002125 -0.530462 -0.219136 0.155981 -0.247376 0.216073 -0.120121 0.186966 0.104399 -0.364449 -0.251645 0.202819 -0.052204 0.082026 -0.289514 0.097998 -0.080429 -0.166634 0.152318 0.042210 0.258463 -0.098986 -0.221643 -0.111171 0.182883 -0.081284 0.014830 -0.039414 0.183612 0.089558 0.193246 0.130002 -0.075746 0.033756 -0.162411 -0.088903 0.038254 0.128093 0.043255 0.172859 0.171783 0.240776 -0.174064 -0.062586 0.103574 -0.038035 0.036473 
294 0.179420 -0.102668 -0.021097 0.094553 0.089285 -0.220863 0.083953 -0.298068 0.210521 0.136581 0.126795 -0.181470 0.264026 0.166398 0.215739 0.239687 -0.159603 -0.308240 0.114068 0.005438 -0.083570 0.152152 0.110585 0.025066 0.261636 0.421675 -0.202933 -0.331566 -0.028918 0.006888 0.218010 0.212398 -0.161624 0.231592 0.168818 -0.163791 0.073231 0.003815 -0.090752 0.132928 -0.247836 0.163329 0.255383 -0.163016 0.264389 0.083727 -0.061902 -0.075059 -0.029846 0.145671 0.092579 0.305986 0.153104 0.248685 0.153830 -0.055059 -0.174549 0.311983 0.081456 -0.169771 0.236172 0.240519 -0.176503 -0.033956 -0.141636 0.063036 -0.177156 -0.208880 0.011406 -0.062619 -0.284257 -0.032290 -0.250550 0.064349 -0.124093 -0.469660 0.052630 -0.160132 -0.129630 0.092381 0.254087 -0.071398 -0.415603 0.083159 -0.078966 -0.061991 0.033759 -0.123835 0.088665 -0.292410 -0.255510 0.172190 0.218774 -0.011355 0.197933 0.321253 0.234132 0.224380 0.104280 -0.032758 0.027462 0.214256 0.021874 0.063143 -0.156768 0.168224 0.146260 -0.329097 0.046593 0.059276 -0.175092 0.006425 -0.040612 0.383787 0.108321 0.084991 0.215445 0.207670 -0.208096 0.041696 0.007590 0.391431 0.123427 0.021598 0.336336 -0.030649 0.033569 0.142781 
7 -0.415254 0.034398 -0.332012 -0.085492 -0.139379 0.073060 0.138072 -0.216312 -0.061236 0.014255 -0.259087 -0.210110 0.026250 -0.561276 0.119569 0.248183 -0.143890 -0.389790 0.189124 -0.049703 -0.072677 -0.019484 0.113267 -0.268566 -0.119187 -0.013017 -0.015922 -0.084040 -0.157048 -0.037342 0.178387 0.115090 -0.137938 -0.229500 0.038338 0.317031 0.299552 -0.281407 -0.279387 -0.214310 0.179752 -0.491956 -0.025448 -0.209654 -0.047660 -0.097229 0.442426 0.078868 -0.302388 0.222487 0.182669 0.003103 0.019678 -0.026007 -0.084315 -0.082743 -0.177328 0.119280 0.207959 -0.187339 -0.238101 -0.319582 0.154911 0.181715 0.068429 -0.062939 0.116880 0.275507 -0.058655 -0.094000 -0.061282 -0.414427 -0.197486 0.162472 -0.218050 -0.041017 0.183104 0.026689 -0.045150 0.274732 0.157134 -0.121380 -0.520010 -0.210562 -0.010635 0.039978 0.039207 -0.231843 0.086884 -0.130959 -0.072335 -0.406295 0.184904 0.107675 -0.008043 0.317954 0.033840 0.059436 -0.330448 0.237476 -0.173082 0.239940 -0.041989 -0.108497 -0.130734 -0.250734 0.096120 -0.035111 0.015911 -0.309355 0.332628 -0.107242 0.206638 -0.024957 -0.056079 0.141544 0.002033 0.062368 0.519597 0.047324 0.289044 0.062036 0.132120 0.215426 -0.234635 -0.045612 -0.474867 0.199981 
56 -0.246489 0.151002 -0.070321 0.197802 -0.181765 -0.187596 -0.072367 -0.090114 0.069872 -0.197712 -0.216266 -0.103385 0.290026 0.077056 0.015920 0.026744 0.091463 -0.024131 -0.018984 0.141660 0.201545 -0.104014 -0.082755 -0.002386 0.097137 -0.066212 -0.054293 -0.130788 -0.367680 -0.064989 0.045218 0.162887 0.181239 -0.153642 0.144352 -0.052279 -0.298258 -0.293290 0.052298 -0.075491 -0.130635 -0.216975 -0.143378 0.073684 0.019340 -0.029459 -0.127149 -0.215136 0.178552 -0.100478 0.013964 0.276338 0.084014 -0.041598 -0.266635 0.077280 -0.261997 0.374426 -0.314426 0.002651 -0.231517 0.098414 0.087875 -0.002057 0.053288 0.188671 0.208458 -0.226061 0.106964 -0.331507 0.201833 0.006395 -0.128880 0.161556 -0.027401 -0.108109 0.025333 -0.276460 0.126884 0.108505 -0.044193 -0.168129 -0.683745 0.100352 0.008481 -0.157388 0.022411 -0.244636 0.179237 -0.072640 -0.185936 0.046370 0.209018 -0.029231 -0.257708 -0.142927 0.291487 -0.028122 0.311313 -0.098437 0.146698 0.270997 -0.063360 0.158618 -0.163541 -0.045330 -0.136045 -0.354628 -0.375705 0.115040 -0.077097 0.140929 -0.202870 -0.048680 -0.084494 -0.070654 0.133697 -0.094564 0.325034 0.357925 0.175668 0.042363 0.143934 0.074070 0.025036 -0.072342 -0.156635 -0.016851 
172 -0.240840 -0.105152 -0.208048 -0.174196 -0.408595 -0.197201 -0.039151 -0.468473 0.013217 -0.209612 -0.200503 0.032435 0.051016 -0.136918 0.241227 0.229339 0.269454 0.195127 0.377111 -0.179645 0.081766 0.023006 -0.097104 0.147965 -0.001108 0.002200 -0.178116 -0.084723 0.000637 -0.307934 -0.091749 -0.153746 0.086557 0.295711 0.097082 0.043018 -0.108660 0.132534 -0.112049 -0.130430 -0.110488 0.235550 0.014331 -0.249233 -0.018511 0.224864 -0.021440 -0.016990 -0.125912 -0.046577 -0.030595 0.424627 0.273288 0.265857 -0.061262 -0.094013 0.223982 0.134232 -0.112605 -0.078562 -0.034947 0.102334 -0.068147 -0.189065 0.061931 0.130000 0.133328 -0.100186 0.267004 -0.019500 -0.168822 0.016122 -0.031828 0.082877 0.129159 -0.034708 -0.013868 -0.154820 0.149813 -0.150335 0.075145 -0.025492 -0.655349 0.160284 0.151123 -0.196930 0.229836 -0.038927 -0.038617 0.217641 0.010871 -0.088409 -0.208110 0.064305 -0.203934 -0.110929 0.050423 0.018836 0.256720 -0.117765 -0.083772 0.188332 -0.055234 -0.113476 0.253674 -0.051041 0.060435 -0.241918 0.160423 -0.098751 0.122391 -0.058715 0.059801 -0.064980 -0.160332 -0.236380 -0.181608 -0.036268 -0.292508 -0.237437 -0.171678 -0.019600 0.317036 -0.101333 0.103628 -0.214362 -0.046517 0.254992 
237 -0.316918 -0.074390 -0.067165 -0.108387 0.103489 0.262582 -0.175517 -0.164660 0.398112 -0.044678 -0.093335 0.073169 0.336556 -0.071622 0.059280 0.109692 -0.036642 0.123978 0.258178 -0.186303 -0.116603 0.051095 -0.046479 0.194657 -0.134013 0.163972 0.043973 -0.059981 0.110074 0.005615 -0.009024 0.283122 -0.067366 -0.051476 -0.302037 0.104389 0.136896 -0.338024 -0.168110 -0.087063 0.575191 0.083838 0.245828 -0.545552 0.163022 0.312876 0.171418 0.110630 0.127264 0.186627 0.185852 0.200160 0.095626 0.001943 0.005216 -0.301871 0.106212 0.076915 0.062900 0.234095 0.032237 0.328764 0.330179 0.069598 -0.179511 0.105396 -0.130779 0.079062 0.140421 0.154687 -0.118286 0.145525 0.152448 0.064484 0.052200 -0.115298 -0.038949 -0.129999 0.066124 0.437872 -0.051891 -0.055429 -0.532560 0.016577 -0.045449 0.096539 0.102376 0.077334 0.388297 -0.208157 -0.225024 -0.026064 0.039179 -0.016741 -0.057603 0.069438 -0.145957 0.142590 -0.047771 0.054499 -0.203780 0.301307 -0.290143 -0.061072 -0.106115 0.283364 0.091843 0.181578 0.341684 0.095348 -0.254975 -0.295106 0.153145 0.202324 0.036573 -0.001446 -0.294603 0.429461 0.179686 0.137943 -0.172061 0.146062 0.363586 0.003207 0.044664 0.046280 0.067612 0.252168 
121 0.080873 -0.376968 -0.267694 0.162072 0.406099 -0.238269 -0.169581 -0.232739 0.292696 -0.207005 -0.118023 -0.211050 -0.005096 -0.033659 -0.178362 0.281765 -0.080010 -0.259348 -0.119235 0.564794 -0.237074 -0.308539 0.078435 0.012211 0.249401 0.442389 0.009186 -0.216767 -0.165611 -0.323103 0.118838 0.133566 0.434997 -0.075815 -0.159074 0.130643 -0.162085 -0.153391 -0.096757 0.030924 0.234507 0.216164 -0.185588 -0.067169 0.053785 -0.000084 0.126545 -0.098155 -0.265257 0.099783 -0.090436 0.253762 0.063079 0.052315 -0.163849 0.209797 0.159423 0.254955 -0.053767 0.140064 0.463302 0.193824 0.198524 0.270437 -0.202364 0.047746 0.403584 -0.099076 0.280059 -0.272273 0.115918 -0.010551 0.090675 0.235416 -0.029198 -0.029598 0.296597 -0.006181 0.013872 0.098709 -0.065063 0.030400 -0.446692 0.330395 -0.023654 0.029637 -0.333723 0.104686 0.270021 0.136291 0.120102 0.236057 0.322845 0.230941 0.130390 0.277144 0.061062 -0.294573 -0.177488 -0.285670 -0.137080 0.227681 -0.027713 -0.061791 -0.245814 0.293942 -0.135122 0.135356 0.390272 0.279892 -0.273802 -0.278975 0.054780 0.110421 0.055183 0.085748 -0.100455 0.084259 -0.204683 0.027106 -0.113281 0.241897 0.320686 0.174031 -0.047702 -0.008086 0.040444 -0.039177 
117 0.150633 0.035657 0.126450 -0.412538 -0.020882 -0.101947 -0.073251 -0.441192 0.389875 0.101964 0.384094 -0.175182 0.524095 -0.184600 -0.024630 0.152818 0.001791 -0.088643 0.194990 0.007798 -0.096654 -0.086087 -0.116865 -0.245821 -0.060893 0.007615 -0.176390 -0.034147 0.022411 -0.025228 0.033309 0.345399 0.129677 0.121360 0.241524 0.065070 0.222037 -0.001861 -0.236516 -0.017376 -0.245351 0.069739 -0.064084 -0.115682 0.087184 -0.121042 -0.067818 0.056642 -0.097813 0.338896 0.208695 0.068927 -0.187326 0.471457 0.089997 0.258793 -0.122034 0.253208 -0.233862 -0.012204 0.305346 0.476715 0.036585 -0.097312 -0.005225 0.216118 0.149044 -0.063139 0.243617 0.157954 -0.266839 -0.128693 0.164665 -0.088731 -0.061772 -0.085395 0.115504 -0.279945 -0.177642 -0.173215 -0.264423 0.017252 -0.517239 -0.033146 0.008347 -0.204572 0.136243 0.050819 0.325536 0.089428 0.059576 0.063963 -0.133020 0.056788 -0.083739 -0.202047 -0.515895 -0.042409 -0.072091 0.164256 0.015810 0.288734 -0.360082 0.072614 0.199168 0.193859 -0.051041 0.107904 -0.245632 -0.129680 0.026601 -0.310007 0.209548 -0.103660 -0.135062 -0.461811 -0.145132 0.267233 0.192339 0.046950 -0.180549 0.173301 0.041460 0.080038 -0.121229 -0.127884 0.195341 0.077743 
222 -0.230913 -0.018052 -0.096275 -0.023087 -0.005861 -0.148639 0.112636 -0.406973 0.009970 0.007186 0.191866 -0.331369 0.230014 -0.083789 -0.130048 -0.105962 0.006288 -0.046887 0.028856 0.070455 -0.372718 0.193800 0.211837 -0.112352 -0.012990 -0.020310 -0.190832 0.086401 -0.076227 0.131617 0.055999 0.160945 0.062466 0.141243 0.193170 -0.019087 0.322210 -0.023823 0.112761 0.131551 -0.263550 -0.197388 -0.055310 -0.094748 -0.106565 -0.231741 0.072604 -0.023633 -0.281302 0.204274 -0.036195 0.439752 0.167557 0.009020 -0.010069 -0.019389 0.061895 0.215068 -0.013362 0.294762 -0.147074 0.135046 0.157494 0.220743 -0.134646 0.583784 0.084298 -0.211457 0.393733 -0.145722 0.056855 0.080498 0.346021 0.140936 0.143007 -0.334030 0.028004 -0.205610 -0.109775 -0.046805 0.068245 0.171945 -0.583567 0.185056 0.021410 0.228903 0.106247 -0.430780 -0.059082 0.178527 0.230311 -0.232941 -0.241820 0.123281 0.006533 0.387787 -0.148546 0.182213 -0.498482 0.030428 0.282616 0.300590 0.121960 -0.292021 0.234444 -0.016932 0.009201 -0.047675 0.057105 -0.179171 0.004337 -0.204258 -0.204131 0.111840 0.024453 0.188004 -0.219204 0.274599 -0.046986 -0.094966 -0.138530 -0.153099 0.112359 -0.021857 -0.111436 -0.120775 0.056033 -0.034704 
313 -0.153644 0.219450 -0.012436 0.188343 -0.058332 0.036769 0.108570 -0.149743 0.029029 0.114405 0.125989 0.077532 0.137162 0.049131 0.439643 -0.025004 -0.170480 0.095413 0.181477 -0.097499 -0.006248 -0.312090 0.038603 0.046679 0.181997 -0.050032 -0.223937 -0.307715 0.039224 0.055612 0.009062 0.040047 0.285405 -0.141014 0.207295 0.407595 -0.192329 -0.209701 -0.120655 -0.164750 -0.018231 0.205148 -0.227600 -0.280679 -0.223184 0.001521 -0.114510 0.105499 0.216007 0.095737 -0.028864 0.279100 -0.073146 0.160163 0.462993 -0.180570 -0.167440 0.348725 0.266298 -0.283215 0.094590 0.501974 0.021062 0.255477 -0.317347 -0.099912 -0.160747 -0.029445 -0.300953 -0.166431 -0.036001 0.422928 -0.252108 0.384109 0.166803 -0.011679 -0.132053 0.162603 0.235535 -0.048815 -0.131521 -0.232551 -0.510537 0.251128 -0.126103 0.276037 0.404262 -0.054872 0.266150 0.100279 -0.258269 -0.046492 0.198100 -0.221679 0.086080 0.149579 0.118134 -0.145814 -0.380883 -0.365866 -0.149716 0.227684 -0.189674 -0.068691 -0.109694 0.464367 0.127259 -0.172093 0.268891 -0.245690 -0.100844 0.199970 0.202783 0.135710 -0.204107 -0.181681 -0.236208 0.061836 -0.275611 -0.139935 -0.122864 0.273464 0.403336 0.455804 0.283319 -0.043472 0.076365 -0.285709 
204 0.080205 0.223853 -0.362183 -0.042046 -0.216089 -0.095106 0.116106 -0.083540 0.243268 0.099740 0.252537 -0.235559 -0.017762 -0.005423 0.066340 0.165371 0.212435 0.123198 0.001079 0.059058 0.074800 0.049428 0.120893 0.159007 0.186465 -0.007319 -0.013419 -0.066632 0.030294 0.147849 0.033972 -0.157956 -0.186711 0.162038 -0.239093 -0.179084 -0.262623 -0.066543 0.021236 -0.253232 0.316546 -0.180822 -0.154710 -0.197507 0.260289 0.004067 -0.175061 -0.037927 0.016702 0.051368 0.062449 0.070505 0.274040 -0.104566 0.357089 -0.082944 -0.133461 0.400833 0.048960 0.039606 -0.096177 0.148900 -0.064945 0.323327 0.118241 0.059059 0.115084 0.125906 0.098359 -0.345333 -0.218071 -0.092917 -0.069572 -0.007392 0.492285 -0.068148 0.056326 -0.059143 -0.138743 -0.101513 -0.011566 0.036814 -0.645101 0.260358 0.329444 -0.122598 -0.082574 -0.005935 0.313309 0.188673 -0.257498 -0.318311 0.035183 -0.031214 -0.087486 -0.133401 -0.430927 0.017353 0.173004 -0.313711 0.135719 -0.145255 0.044183 -0.080180 -0.102631 -0.135793 -0.010598 0.057398 -0.077588 0.075685 0.059144 -0.084250 0.088448 -0.122832 -0.218111 -0.114193 0.339086 0.004451 -0.020316 0.028895 0.115168 0.168307 0.095666 0.116923 -0.207426 -0.010651 0.105964 0.047232 
79 0.174984 -0.052721 0.143850 -0.488900 0.036997 -0.248804 -0.242437 -0.135858 0.184959 -0.047107 0.250910 -0.206283 0.023993 0.153153 0.269621 -0.008690 -0.263352 -0.032097 0.071861 0.162369 0.015827 0.257411 -0.217019 -0.109832 0.016294 -0.321241 0.112829 0.030913 -0.209639 -0.193048 -0.035885 -0.162330 0.288198 -0.125241 0.285043 0.086028 0.194942 -0.120678 0.145572 -0.126272 0.218224 -0.232082 -0.107498 -0.437355 -0.081340 0.195816 -0.054094 -0.102795 0.222252 -0.109093 0.145024 0.269964 0.118697 -0.041639 0.285813 0.023342 -0.050726 -0.226875 0.013260 0.139267 0.184115 0.087235 0.144956 0.158102 0.056769 -0.034377 0.207093 0.155391 0.034328 -0.060960 -0.084293 0.112498 -0.173177 0.230356 -0.117278 0.128941 -0.057431 -0.219871 -0.364389 0.018245 -0.098344 -0.257106 -0.524388 0.005338 0.215183 0.004786 0.292220 -0.344243 0.130934 -0.053980 -0.107752 -0.218900 0.136250 0.144001 -0.050613 0.148072 -0.034648 0.060603 0.245917 -0.107580 0.207197 0.061298 -0.015514 0.090937 0.057399 0.196798 -0.558354 -0.032980 0.059732 0.209801 -0.045898 0.202906 -0.074061 0.099460 -0.027865 -0.105160 -0.014641 -0.208907 -0.140276 0.133622 -0.011870 -0.066457 -0.026031 0.131010 -0.042430 -0.278998 -0.025621 0.134601 
210 -0.028581 -0.160806 0.077264 -0.313542 0.110499 -0.236583 -0.000501 -0.145798 0.264658 0.527854 0.291378 -0.079436 0.398007 -0.041616 0.177885 0.220650 0.188568 -0.026125 0.221599 0.067940 0.030216 0.037526 0.096741 -0.078532 0.061330 -0.078662 0.019279 0.153002 0.026699 -0.158468 -0.070826 0.132003 0.349188 0.153494 -0.105346 -0.124944 0.075770 0.013105 -0.292853 -0.099161 -0.103727 -0.064041 0.037179 -0.102161 0.155768 -0.234108 0.127564 0.093120 0.250950 -0.174553 -0.209308 -0.205448 0.339530 0.307436 -0.056638 0.112793 0.027915 0.092697 -0.189294 -0.296732 0.077829 -0.187939 0.197166 0.058594 0.214836 0.182584 0.156384 0.220595 0.207468 -0.115895 0.122426 0.037519 -0.257004 0.145070 -0.339334 0.047425 0.074779 0.030660 -0.025449 -0.328249 -0.198186 -0.275309 -0.583406 0.215173 0.135027 0.061161 -0.198941 0.089840 -0.030879 -0.047798 0.046687 0.101559 0.010816 -0.056174 0.352854 -0.210149 -0.151423 -0.422585 -0.346025 -0.089739 -0.168206 0.317089 0.091734 -0.100595 -0.008798 0.159849 -0.186010 0.046466 0.078563 -0.179350 0.106478 0.006243 0.040817 0.191252 -0.130517 -0.006322 -0.338506 0.228277 0.182240 0.332570 0.017059 0.063992 -0.018167 -0.086933 0.072071 -0.181156 -0.065162 0.245455 
173 -0.045344 -0.061767 -0.208204 -0.060225 -0.011999 -0.310310 0.514895 -0.143821 -0.061563 -0.043161 -0.221885 -0.195975 0.385689 0.116903 0.222383 0.113167 -0.088773 -0.181714 0.173643 -0.180328 -0.184557 -0.067533 0.094240 -0.184796 0.046235 -0.085683 0.183441 -0.235123 -0.164864 -0.295593 -0.037340 0.214352 0.094968 -0.348850 -0.247455 0.043626 0.023888 -0.029801 -0.089601 -0.116704 0.169464 -0.033418 -0.227294 -0.247943 0.162466 0.009472 -0.041234 -0.290559 0.192082 0.167023 0.032941 0.161576 0.160317 -0.115466 -0.118209 -0.184253 -0.089320 0.144090 0.098165 -0.324861 0.060575 0.051296 0.134217 0.423095 0.174673 0.228425 -0.118585 0.004309 -0.409751 0.051661 0.071664 -0.286935 0.049663 -0.089135 -0.089814 -0.213212 -0.056213 -0.156100 0.170244 -0.057669 0.269166 -0.062874 -0.549172 0.139893 0.140965 0.127578 0.052474 -0.060227 0.025635 -0.149499 0.077835 0.365454 -0.261791 0.024887 0.068623 0.063613 -0.477208 -0.118505 -0.164288 0.050024 0.156037 0.151607 0.192165 -0.113434 0.181219 -0.104205 0.499874 0.110511 -0.256897 0.012872 -0.211056 0.147828 0.243979 0.008867 -0.311993 -0.247841 -0.424516 0.074052 -0.240490 -0.094769 -0.068421 0.347031 -0.320703 0.021515 -0.049137 0.066675 -0.201768 0.110538 
168 -0.093946 -0.175476 0.346711 -0.339757 -0.119400 0.046436 0.109375 0.160676 -0.082651 -0.085252 0.013493 0.013388 -0.095982 -0.041276 0.101740 0.372122 -0.122570 0.204180 0.310337 -0.248227 0.098414 0.165131 0.134641 -0.358635 0.038171 -0.200285 0.095188 -0.295710 -0.143469 0.085707 0.141163 0.052634 0.250561 -0.040074 0.060400 0.282375 -0.130585 -0.175652 -0.226876 0.152927 0.127242 0.174695 0.166376 -0.370433 -0.029253 0.053861 -0.109676 0.014844 -0.077148 0.097344 0.346192 0.001912 0.112407 -0.073539 0.444038 0.215392 -0.009666 -0.120831 -0.172839 0.020106 -0.113883 0.114558 0.028241 -0.109094 0.358818 0.066322 0.071516 0.106837 -0.036893 -0.129406 -0.126878 -0.087936 -0.154438 0.158449 0.197000 -0.275236 0.267591 0.076819 0.065890 0.118953 -0.077539 0.032773 -0.717110 0.123202 0.315713 0.393265 0.013954 -0.167822 -0.020155 0.093436 -0.272232 -0.132276 0.328403 0.302617 -0.059935 -0.105245 -0.122392 -0.051892 -0.004594 -0.183782 0.183665 0.068429 0.093998 -0.348061 0.086884 0.024728 -0.254140 -0.122886 -0.016743 0.103442 -0.046011 -0.251122 0.260741 0.129328 0.074778 0.015027 -0.207433 0.019226 -0.040894 0.088630 -0.393871 -0.144013 -0.298886 -0.240327 0.039253 -0.023153 -0.026836 -0.123750 
269 -0.038999 0.127312 0.256063 0.193949 -0.045649 0.581675 -0.064437 -0.014020 0.070350 -0.237804 0.001092 -0.022834 0.147821 -0.149134 0.367880 0.000123 0.006443 -0.097831 0.543133 -0.100811 0.086410 -0.192794 0.198043 -0.129653 0.161943 0.165831 -0.011269 -0.036442 -0.220050 -0.156095 0.214512 -0.104009 0.466654 0.197067 -0.014670 0.259062 -0.343225 0.101469 -0.407101 -0.025592 -0.196137 0.057183 -0.103709 -0.205223 -0.142280 0.008387 0.002317 -0.106155 -0.193066 0.278251 -0.107897 0.207349 -0.236671 -0.089685 0.134702 -0.184299 -0.244203 -0.237657 -0.010530 -0.439190 0.236882 -0.265872 -0.089514 0.523706 -0.169613 0.317011 -0.465191 -0.109101 0.043296 -0.089131 0.101331 0.400722 0.023751 0.543880 0.545100 -0.105852 0.035334 0.111492 -0.041479 0.034684 0.161839 -0.185052 -0.682312 0.498608 -0.214822 -0.283517 0.124772 0.169298 0.155809 -0.114433 -0.313274 0.252031 0.023111 -0.209864 -0.282066 0.539823 0.332459 0.333230 -0.090804 -0.346171 -0.138702 0.239923 -0.084157 -0.030558 -0.162401 -0.075077 0.037508 -0.222478 0.304454 -0.226868 0.110281 0.385096 -0.122654 0.122530 0.220032 0.100451 -0.410814 0.127245 -0.048206 -0.024338 -0.067394 0.422870 0.130027 0.054258 -0.237491 0.189436 -0.008695 -0.219576 
318 0.045108 0.097474 -0.102934 -0.323720 -0.063613 0.071897 -0.157058 -0.046288 0.096460 -0.257103 -0.252050 -0.242684 0.143986 0.113237 -0.051985 0.179288 0.087934 0.186781 0.403164 -0.207053 0.207361 -0.301705 0.138244 0.106046 -0.131566 0.033230 -0.158642 -0.073840 -0.251561 -0.157771 0.048953 -0.263558 0.412731 0.017877 -0.340584 0.210865 -0.128110 0.120286 0.114962 -0.047958 0.448696 -0.103905 -0.302590 -0.661546 -0.388365 0.034024 0.190335 0.147048 0.246123 -0.198676 -0.067943 -0.255387 0.062451 -0.354956 -0.019317 -0.135543 -0.006919 -0.111163 -0.148918 0.066807 -0.190095 -0.037907 0.150057 0.077532 -0.019972 -0.057077 -0.298359 0.087207 -0.030982 -0.256175 -0.310682 0.004831 -0.296235 -0.168730 0.076332 -0.004597 0.292966 -0.409310 0.479150 -0.060172 0.127318 -0.282350 -0.526977 -0.075577 0.046933 0.391389 -0.359535 -0.077351 -0.017460 -0.035991 -0.137340 0.068533 0.095388 0.217154 -0.086534 0.030141 0.062169 -0.142439 0.062539 -0.214072 0.035186 0.105826 0.194306 -0.055136 -0.032779 -0.251513 -0.078783 0.157017 0.114574 0.039763 -0.179173 0.280312 0.003004 0.005334 -0.075829 -0.300270 0.158545 -0.200282 -0.136319 0.285390 0.088428 -0.088408 -0.056179 -0.016630 0.286006 0.105468 0.160730 -0.449279 
302 -0.020420 -0.016250 -0.016699 0.010686 -0.219246 0.044471 0.432686 -0.045803 0.041945 0.062868 -0.017099 0.233660 0.429769 -0.031592 -0.243047 0.387904 0.496595 -0.283715 0.661788 0.036194 -0.224236 -0.135399 0.103858 -0.567385 0.374490 -0.118258 -0.253412 -0.095162 0.317193 -0.043301 0.324839 -0.155149 0.081235 0.079479 0.218768 0.143998 -0.292899 -0.138772 0.073678 0.048518 -0.196199 0.234223 -0.037528 -0.011166 0.274500 -0.307692 0.100247 0.197207 0.155580 0.132873 -0.469313 0.004067 -0.122901 0.069616 0.021474 -0.060555 0.102697 0.303122 -0.183754 -0.207167 0.196790 0.426683 0.055683 0.435440 0.258364 0.274479 -0.152267 0.057466 0.116584 -0.277130 0.043216 0.128696 0.206877 0.403854 0.255068 -0.157688 -0.415959 0.164148 0.175306 0.428733 0.440493 0.111586 -0.453113 0.222774 0.039654 0.019150 0.009054 -0.038680 -0.086026 -0.314907 0.096547 0.007620 -0.127538 0.123296 0.486772 0.181228 0.364052 0.159975 -0.568044 0.357895 0.123638 0.151161 0.135480 0.001774 -0.219161 -0.066135 0.370103 -0.109695 0.279801 -0.108855 -0.166202 0.442077 -0.199832 -0.092041 0.011772 -0.189191 -0.456973 0.108036 -0.004302 -0.026858 -0.106408 0.177394 0.279532 -0.150981 0.066171 -0.374052 -0.159999 -0.038340 
69 -0.327917 -0.327586 -0.011129 -0.634772 0.262330 -0.262992 0.095636 -0.294123 0.124694 -0.066393 -0.047082 -0.268082 -0.060139 -0.318839 0.029341 0.082654 -0.453104 -0.067513 0.023922 -0.155104 -0.042110 -0.100622 -0.321859 -0.045519 -0.033813 -0.067438 0.067439 0.081149 -0.165051 0.175784 0.005569 0.047694 0.099427 -0.184975 -0.247040 -0.139569 -0.150854 -0.163225 -0.042199 0.094793 0.033678 0.127190 0.131936 -0.248790 0.095996 0.151438 0.018208 -0.201039 -0.238265 -0.456881 0.220584 -0.222461 -0.057970 -0.160014 0.059819 0.002477 -0.210775 -0.055768 -0.017158 0.239481 0.184379 0.166441 -0.076476 0.092589 -0.057052 -0.023155 0.012814 0.047832 0.062787 0.124192 -0.007213 0.105054 0.218743 -0.065849 -0.437696 0.325325 0.270794 -0.220010 -0.138324 0.099353 -0.262324 -0.185095 -0.725286 -0.507170 0.262983 -0.255037 -0.069651 -0.221681 0.053916 0.045118 0.125317 0.165237 0.068548 0.241659 -0.005692 -0.389986 0.289706 -0.303007 -0.203556 0.078598 0.100124 -0.292576 0.086723 -0.273584 -0.113467 0.228323 0.056708 -0.051095 -0.274008 -0.179325 -0.219793 0.193029 0.207786 0.028915 0.024163 0.281705 0.005206 0.221881 -0.121525 0.222995 -0.069585 0.234066 0.119208 0.422940 0.134950 -0.140075 0.171669 0.190057 
195 0.216896 0.205108 0.453623 0.315730 -0.116884 -0.148803 0.035841 -0.595422 0.081372 -0.232439 0.081021 0.086426 0.179515 0.223188 0.073986 -0.045695 -0.087378 -0.043214 0.401599 0.164705 -0.068629 -0.043365 0.120070 -0.068753 -0.007512 0.018547 -0.062530 0.041517 0.066082 0.023370 0.078575 -0.090363 0.135967 0.012845 -0.199806 -0.307816 0.221377 -0.244816 0.274965 0.071163 0.248082 0.016815 -0.379535 -0.167096 -0.287064 0.021745 0.130909 -0.035076 -0.246940 0.117085 0.268268 -0.092678 0.155127 0.095239 0.106866 -0.283918 0.506898 0.333403 0.118971 -0.198837 -0.052277 -0.265276 0.261491 0.382719 0.077418 0.222020 0.102676 0.016652 0.068802 0.207089 -0.127749 -0.382525 -0.131539 0.203302 -0.005659 -0.238191 0.183455 0.028894 0.282560 0.141505 -0.196813 0.025063 -0.624695 -0.118548 -0.027043 0.138922 0.105190 -0.110299 0.096735 -0.048846 -0.156586 -0.213211 -0.156990 -0.310773 -0.183846 -0.258776 0.282968 -0.092605 0.078384 -0.001508 -0.120919 0.291666 0.192739 0.164345 0.055206 0.113861 0.070724 0.200217 0.167352 0.251504 0.242998 -0.308868 0.150772 0.080146 -0.051319 0.050611 0.209323 0.167443 0.094806 0.349402 0.095755 0.610162 -0.083554 -0.038845 0.050216 -0.210726 0.097452 -0.258280 
22 0.124033 -0.226736 -0.091829 -0.277650 -0.251891 0.017971 0.132007 -0.276662 -0.220459 -0.064935 0.088971 -0.332404 -0.221393 0.172812 -0.048536 0.039071 0.106950 0.152438 0.134770 0.038125 -0.320060 -0.184095 -0.120006 -0.023035 0.320837 -0.231581 -0.184984 -0.218708 -0.159449 0.283050 0.186848 -0.153961 0.263045 -0.310662 0.125172 0.168745 0.052260 -0.210761 -0.041147 -0.437288 0.209856 0.090833 -0.001516 -0.100687 0.321153 -0.040658 -0.101313 -0.278540 -0.186754 -0.043272 0.079676 0.458181 -0.022456 0.228263 0.138014 0.069341 0.003713 -0.007825 -0.006032 0.065112 0.242133 0.306601 0.080496 0.010416 0.153333 0.204930 -0.041669 -0.089531 0.178376 -0.147475 0.468114 -0.073638 -0.171381 0.306873 -0.302976 -0.207056 -0.055344 -0.278425 0.413274 -0.050528 0.141398 -0.129266 -0.623714 0.338040 -0.483136 0.053468 0.354975 -0.070829 -0.016916 -0.015539 0.220023 -0.011207 0.221060 -0.144257 0.210180 0.126931 0.189346 -0.269145 0.201893 0.068056 0.084053 -0.202860 -0.074199 0.168571 0.218589 0.039986 0.071588 -0.091137 0.206737 0.515058 0.351364 -0.082245 -0.037965 0.103095 0.004388 -0.064232 0.019679 0.416843 -0.259806 0.233429 -0.006478 0.164587 -0.250288 0.164270 -0.079958 0.110061 0.167740 -0.012994 
405 -0.178622 -0.218164 -0.146404 0.109153 0.070006 -0.328902 -0.049856 -0.069875 0.267493 -0.019820 -0.098903 -0.141800 0.261333 -0.089220 -0.316582 0.126863 -0.256640 0.031490 -0.053817 0.280351 -0.509896 -0.118665 -0.292284 -0.104832 0.106461 0.020736 -0.221025 -0.251895 -0.027980 0.325312 0.102944 -0.019456 -0.234830 0.061327 -0.392850 -0.333480 0.192728 -0.004994 0.078158 -0.050583 0.181099 -0.160223 -0.303679 -0.332586 0.014224 0.158031 0.137320 -0.038055 -0.266090 0.134359 -0.131172 0.307845 -0.315928 0.137631 0.128468 0.104197 0.086676 0.175726 0.067574 0.003348 0.343616 0.157976 -0.038446 0.097223 -0.361625 0.373622 0.010840 0.073495 0.307512 0.082537 -0.029756 -0.090955 0.203629 0.215998 -0.069059 -0.206632 0.007450 -0.068929 0.392502 -0.148344 0.137959 -0.097432 -0.362470 -0.204972 0.319051 -0.246151 -0.421567 -0.246776 0.475503 0.360781 -0.043605 -0.124701 0.066291 -0.373836 -0.047372 0.180133 0.032326 -0.193259 0.027039 0.028535 -0.071215 0.119998 0.015477 -0.122138 0.015261 -0.123310 -0.007318 -0.138493 0.451714 -0.167027 -0.143787 -0.149132 -0.018672 0.298019 -0.252909 0.002757 -0.241999 -0.021622 -0.213497 0.192750 -0.154639 0.006938 0.068603 0.258531 0.138899 -0.010851 -0.154414 0.232921 
64 0.016722 0.261150 -0.142497 -0.172258 0.199477 0.333504 0.136759 -0.127186 0.083695 -0.235489 -0.178403 -0.116204 0.120454 0.084875 0.124957 0.089419 0.004725 0.072260 0.301145 -0.207776 0.316825 -0.262433 -0.285699 -0.165708 0.289906 0.462774 -0.075292 -0.272860 0.234106 0.034010 -0.001217 0.005000 0.145488 -0.088756 -0.033691 0.137025 -0.467080 0.105349 0.262238 -0.047473 0.081861 -0.018678 -0.305580 0.119961 -0.100331 0.100590 0.364124 -0.313453 0.161624 -0.141634 -0.054747 0.309781 0.120364 -0.116198 0.019696 -0.169079 -0.172366 0.130354 -0.017654 -0.250626 0.021437 0.119621 0.101875 0.376805 0.260100 0.115254 0.256229 -0.238875 0.295886 -0.002448 -0.068412 -0.569382 0.139081 0.350898 -0.357870 -0.331926 0.169438 -0.261784 0.261407 0.175599 0.094312 -0.129097 -0.598419 0.231417 -0.118583 -0.251958 0.084027 0.028018 0.227674 0.047411 0.178656 0.310034 -0.094766 -0.279495 -0.050976 -0.184811 -0.098106 0.219523 0.192030 0.077740 0.000137 0.103382 0.115022 -0.040579 0.017849 0.325832 0.132326 0.089777 -0.349898 -0.061340 -0.159611 -0.253366 0.337890 0.356612 0.074628 -0.050373 0.058648 0.220412 -0.029129 -0.159518 0.000185 0.080372 -0.390426 -0.102938 0.121857 -0.001331 -0.033185 0.186636 
151 -0.064237 -0.109369 0.338278 -0.300321 -0.178684 -0.111165 -0.131153 -0.341987 -0.068876 0.081809 -0.142532 -0.152589 0.114306 0.023230 -0.041317 0.169219 -0.356266 -0.161706 0.369821 0.101785 -0.101109 -0.203101 0.180897 -0.118612 -0.019864 -0.035246 -0.177114 0.106681 0.169959 -0.280847 -0.012943 0.114519 -0.056258 0.115384 0.008159 0.479976 -0.010941 0.023962 0.143389 0.066818 0.374253 -0.131829 0.156830 -0.171999 -0.008987 -0.100823 -0.254204 0.042420 0.036098 0.146157 -0.135052 0.446148 -0.065585 -0.074814 -0.142665 -0.069359 0.275690 0.067067 -0.295520 0.045628 0.414416 0.074207 0.047488 -0.100615 0.110214 -0.379326 0.153698 0.048812 0.254681 -0.005532 0.057666 -0.102413 0.328791 0.102588 0.060883 -0.243253 0.125357 -0.146922 -0.045032 0.457326 -0.138925 -0.082285 -0.516036 0.124850 0.012761 -0.221846 0.197142 -0.001122 0.090081 -0.132102 -0.054989 -0.096777 -0.048350 0.278209 0.250527 0.180143 0.177135 0.048318 -0.233708 0.144260 0.559188 0.635647 -0.001416 0.156352 -0.296708 0.009395 -0.231251 -0.012563 0.102218 -0.203353 -0.207737 -0.334145 0.020441 0.117372 0.035893 0.124510 0.266549 0.437426 -0.114296 -0.039492 0.094701 -0.110888 -0.077976 0.048656 0.002112 -0.054364 -0.145163 0.286701 
183 0.120006 0.022279 -0.203607 -0.419195 0.515561 -0.104804 -0.130222 -0.390417 0.295925 -0.278657 0.070778 -0.146334 -0.073054 0.118748 0.293864 0.163974 -0.219654 -0.152644 -0.020980 0.126873 -0.100059 0.245838 -0.088147 -0.074686 0.439062 -0.051444 -0.025316 -0.091084 0.045177 -0.144718 0.023787 0.033747 0.165606 -0.199032 -0.082927 0.318983 -0.187797 -0.327184 -0.172161 -0.362480 0.008289 0.141780 0.244547 -0.124432 0.045661 -0.115921 0.205205 -0.277109 0.364812 0.208151 0.091551 0.042732 0.041842 0.006585 -0.256644 -0.110982 -0.085334 0.186723 0.275314 -0.285202 -0.158820 0.041107 0.079952 0.013127 -0.107973 -0.161784 0.021756 -0.040226 0.116671 -0.139397 0.133660 -0.162909 -0.260891 0.069845 0.366665 -0.186630 0.101523 0.019074 -0.166953 -0.184106 -0.214379 -0.209757 -0.635916 -0.225266 -0.120851 0.207863 0.000360 -0.136437 0.323424 0.000014 0.025911 -0.143893 0.234570 -0.106067 0.012922 -0.145280 -0.025808 -0.300319 0.141961 -0.072933 0.004220 0.187189 0.058569 -0.158434 -0.051273 -0.271031 0.107439 0.033088 0.142695 -0.057490 0.165743 -0.148195 0.061064 0.143390 0.066015 -0.031476 0.176589 0.002353 -0.338912 -0.013447 0.047641 0.075819 -0.495200 0.305045 -0.034714 -0.279380 -0.067079 0.093952 
257 0.120582 0.023492 -0.007317 0.029240 -0.101746 0.014128 0.077811 -0.313428 -0.089106 0.050502 0.029313 -0.308777 0.253399 0.006360 -0.318468 -0.095964 -0.330545 0.007520 0.361211 0.428202 -0.074252 -0.025813 0.007359 -0.190521 -0.129470 -0.027082 0.140327 0.160386 -0.014114 0.015093 0.438918 -0.063472 0.032986 0.162608 0.007736 -0.147846 0.220747 0.240104 -0.201492 -0.167706 -0.066495 -0.014650 0.145339 -0.077156 -0.301717 -0.326668 -0.042022 -0.037031 0.081874 -0.131433 -0.101297 0.020973 0.131226 0.063083 -0.122971 0.100100 0.131710 0.087003 0.078349 -0.169406 0.069375 -0.098593 0.139963 -0.122706 0.113363 -0.161917 -0.159319 0.535534 -0.130841 -0.008405 -0.485416 -0.014444 0.310543 -0.116378 0.065622 -0.215621 -0.106125 -0.305362 0.329070 -0.218502 0.274278 -0.009916 -0.532307 0.061616 -0.118303 0.281418 -0.282396 -0.017675 0.310933 0.337251 -0.230506 -0.046668 0.194552 0.262076 0.020216 0.213760 0.221580 -0.009584 -0.151770 0.451545 -0.111078 0.343781 0.310537 0.093361 -0.431695 0.212536 -0.160330 0.332027 0.081685 0.081151 0.137796 -0.332656 0.003428 -0.051618 -0.221069 0.155093 0.274028 0.112747 -0.176016 -0.120729 0.290062 0.384380 0.261060 -0.116670 -0.381807 -0.487993 -0.257746 -0.097359 
216 0.168783 0.008673 -0.106485 0.039503 -0.243756 -0.045069 0.146045 -0.188849 -0.008628 0.287322 -0.230580 -0.217375 -0.020155 0.282628 -0.111128 -0.027182 -0.012128 -0.104022 0.060254 -0.105121 -0.179688 0.256981 -0.058772 0.055454 0.357910 -0.002524 -0.112767 -0.313812 -0.015993 0.053666 -0.077110 0.208407 -0.003778 0.057064 -0.042764 0.382805 -0.142114 -0.326044 0.049036 0.139595 0.193511 0.101540 -0.038371 -0.488959 -0.185228 0.082793 -0.401805 -0.014210 0.383806 -0.018993 0.412394 0.312655 -0.092054 -0.144597 -0.053866 -0.217340 0.029519 -0.267922 -0.169753 0.360577 0.034166 -0.052417 0.190505 -0.176213 0.363635 0.063733 0.096428 0.251550 0.128413 -0.025071 -0.103114 -0.365406 -0.253592 0.094365 0.202242 -0.307061 0.001870 0.220385 0.025716 0.119394 0.191542 -0.068139 -0.627659 -0.040006 0.098020 -0.070412 0.067874 -0.249535 0.055259 -0.279055 0.060671 -0.111737 -0.172406 -0.070407 0.213180 -0.039990 -0.325136 0.237770 -0.167458 -0.044225 -0.143255 -0.007680 0.115041 -0.031363 0.026388 0.066213 0.083447 0.236422 -0.034022 -0.013577 -0.486599 -0.069592 0.401263 0.122389 0.243809 -0.230996 0.046042 -0.130374 0.129962 0.026196 0.212676 0.507035 -0.104460 -0.078831 0.214288 -0.152585 0.135292 -0.066608 
9 -0.148860 0.243469 -0.531580 0.237787 0.113145 -0.126773 -0.048308 -0.278147 0.082960 -0.265259 -0.049609 -0.534142 0.215934 -0.134931 -0.265719 -0.050598 0.235660 0.039229 0.434010 0.072994 0.007184 0.041844 -0.235564 -0.367352 0.297949 0.091647 0.102518 0.173133 0.331304 0.131706 0.065527 0.190055 -0.372580 -0.125276 0.218891 0.138994 0.022764 -0.120927 -0.196661 -0.130451 -0.191027 -0.049652 -0.201350 -0.460070 0.091557 -0.019851 0.231471 0.125967 -0.288760 0.252284 0.108949 0.301275 -0.339900 -0.067116 0.061260 -0.200320 0.059114 -0.082766 0.074252 0.229562 0.297336 0.008810 0.086822 0.222241 -0.058778 0.013191 -0.056757 -0.529130 -0.034531 -0.114627 0.023174 0.062856 0.080357 0.251407 0.043958 -0.037418 -0.062141 0.017182 -0.060416 0.457117 0.203676 -0.103270 -0.395972 -0.311686 0.028879 0.169782 0.008332 -0.162868 0.238036 -0.002015 0.055939 0.127057 0.046021 -0.405811 0.122739 0.374005 -0.003525 -0.078137 -0.145700 -0.148810 -0.074754 0.294592 0.279397 0.129862 0.002547 -0.084301 -0.181342 0.165022 -0.031074 0.080854 0.074487 0.124245 0.144488 0.116382 0.279672 0.112092 -0.291530 0.181638 0.450761 -0.130977 0.182428 0.280549 -0.119250 -0.049597 -0.074136 0.019596 0.066622 0.032635 
96 0.206491 0.022873 0.188093 -0.096182 -0.339390 -0.216823 -0.335062 -0.242608 -0.117914 -0.121281 0.095363 -0.256241 0.104782 -0.092032 0.058121 -0.115703 -0.178055 0.077469 -0.044052 0.142404 -0.086399 -0.100036 -0.007234 -0.218335 0.097261 -0.014848 0.458453 0.154367 0.111234 -0.088226 0.395975 0.064351 -0.201565 -0.067096 -0.102969 -0.092057 -0.033200 -0.146339 0.342849 -0.112274 0.112481 -0.007380 -0.096604 -0.269732 -0.051509 -0.063381 0.331205 -0.154486 -0.305042 -0.447121 -0.421503 0.338409 0.325408 -0.186482 0.047940 0.018157 -0.109773 0.049148 0.075126 -0.215521 -0.090536 0.185258 0.136923 -0.001492 0.222271 0.014169 0.236944 -0.213834 0.207767 0.056675 -0.279518 0.090100 0.459523 0.049730 0.056467 -0.436151 0.078436 0.210736 -0.110004 0.085730 0.207279 -0.064599 -0.703559 -0.278655 0.237309 0.210696 0.259063 -0.363423 0.241272 -0.005601 0.165950 0.388272 0.002857 -0.358984 0.040134 -0.293831 -0.041844 -0.096016 0.077025 -0.045477 -0.167889 0.248567 0.093533 0.040289 0.158281 0.189384 -0.033055 -0.255578 0.152340 0.128871 0.000235 0.039164 0.304541 0.033159 -0.089213 -0.207246 -0.255106 -0.229523 -0.103184 0.287917 0.196867 -0.045482 0.119767 0.127495 0.196752 0.128700 -0.517086 0.100904 
191 0.411835 0.020578 -0.399158 -0.186053 -0.091145 0.088529 0.113388 -0.077969 0.014120 0.082646 0.137933 0.040736 -0.118901 -0.117025 0.125461 0.087692 0.316389 0.023019 0.247202 -0.247467 -0.025729 0.117445 -0.056370 -0.165123 -0.022697 -0.162195 -0.050411 -0.103804 -0.149164 -0.405418 -0.160239 -0.270467 0.011838 0.095917 -0.121082 0.069148 -0.137427 0.008571 -0.183683 -0.008058 -0.007046 0.172182 -0.090825 -0.297442 0.052135 0.040512 -0.023717 0.202164 0.039231 -0.047141 0.215885 0.068851 0.079814 0.264323 0.091287 0.125452 0.131914 0.446277 0.215453 -0.216200 -0.024773 -0.073338 0.197613 0.232662 0.174032 0.231758 0.041155 -0.082169 -0.024270 -0.093721 -0.092616 0.025351 -0.096992 -0.179166 -0.028544 0.544190 -0.026494 0.373483 0.287895 0.349927 0.088963 -0.431778 -0.760857 0.128974 -0.058562 -0.090446 0.053136 0.190178 -0.147076 0.192443 0.376101 -0.374260 0.074392 -0.042482 0.142039 -0.164786 -0.083863 0.048280 0.276370 -0.045334 -0.003270 0.245910 -0.075902 0.148322 -0.009899 0.265290 -0.247325 0.193730 0.146195 0.109794 0.050839 -0.279592 -0.199821 0.175785 -0.097661 0.149176 -0.021470 0.039135 0.017438 -0.276165 0.269671 0.097561 0.036577 0.193234 -0.161775 -0.312119 0.008252 0.022649 
15 -0.001444 -0.263126 -0.264108 -0.126956 0.253604 -0.161130 0.165428 -0.692217 0.258783 -0.243987 0.174065 -0.242676 0.250400 -0.033895 -0.358100 0.393386 0.177357 -0.227282 0.143682 -0.092258 -0.145432 0.144405 -0.134756 -0.026502 0.174106 -0.295883 -0.245587 0.065679 0.042629 0.295570 -0.261014 0.235558 0.134263 0.071420 0.091077 0.082496 -0.251817 0.052570 -0.097057 0.011068 -0.033983 0.084450 -0.187264 -0.377530 -0.297112 -0.170766 0.065724 0.348816 0.204926 -0.048328 -0.002816 0.048912 0.108178 0.065020 -0.332965 -0.104554 -0.194742 -0.333260 -0.192389 -0.093727 -0.178501 0.014512 0.248577 -0.037503 -0.425176 0.068996 -0.441690 -0.159272 0.246823 0.013704 -0.370439 0.586832 0.390224 0.231409 -0.229230 -0.195920 0.203378 0.013690 0.358654 0.214130 0.060291 -0.260357 -0.403647 0.035926 0.221644 0.370504 -0.052375 -0.050997 0.122935 -0.060519 -0.032230 -0.007806 -0.177993 0.047002 -0.177979 0.018980 0.105446 0.054074 -0.206480 -0.029204 0.001518 -0.010963 -0.065186 -0.026394 -0.188089 0.283540 -0.281129 0.111122 -0.023596 -0.010170 -0.086262 -0.001463 -0.179361 -0.302164 -0.175818 0.047537 0.320544 0.086916 -0.235003 0.267205 0.097578 0.121202 0.306898 0.164220 0.368615 0.274814 0.080683 0.395677 
423 -0.079782 0.257253 0.022083 -0.290882 -0.179000 0.158048 -0.161714 -0.024506 0.417421 0.156432 -0.211152 -0.058806 0.153445 -0.019596 -0.045998 -0.165014 -0.040927 0.126983 0.254250 0.041362 0.294776 -0.071778 -0.218769 -0.099055 0.024023 -0.014473 -0.165975 0.087252 -0.250982 0.390759 -0.073501 0.053135 -0.067526 0.276736 -0.296877 0.218014 -0.185594 0.124015 -0.113418 0.148100 0.289141 -0.007439 -0.130773 -0.267305 -0.155283 0.086582 -0.083179 -0.296596 0.189077 -0.129014 -0.035636 0.083546 0.258462 0.147670 0.225955 -0.235290 0.150448 0.007947 -0.286037 -0.005827 -0.103929 0.126874 0.116596 -0.417144 0.205750 0.005523 -0.207518 -0.080862 0.051737 -0.084879 -0.128329 -0.016750 0.216037 -0.046512 0.217578 -0.589762 -0.166924 -0.164047 -0.457439 -0.015954 -0.060658 -0.226070 -0.760306 -0.112543 0.038182 0.104977 -0.169383 0.178735 0.018508 0.085833 -0.104032 -0.026119 0.079908 0.056501 0.266238 -0.060687 -0.141966 -0.196307 -0.090697 0.262717 0.039893 0.135513 -0.232085 0.011862 0.554889 -0.183328 -0.090258 -0.048792 -0.041240 -0.006801 -0.085477 0.102163 0.097630 -0.079210 -0.038014 0.056037 0.013083 0.093153 -0.130225 -0.116364 -0.013318 0.148696 -0.337476 -0.218225 -0.051191 0.228787 -0.031204 0.018767 
28 -0.238037 -0.114847 -0.148783 -0.150030 0.264613 0.012794 0.371821 -0.510321 -0.168178 0.039736 -0.332371 -0.103401 -0.161961 0.022008 -0.352282 -0.189657 -0.156008 -0.231378 -0.071051 -0.123449 0.081387 0.044901 0.085554 -0.167710 -0.006626 0.038173 -0.051485 -0.225799 0.025409 -0.388750 -0.025363 -0.066237 -0.089949 0.085303 -0.329619 0.082656 0.066012 -0.457886 -0.103072 -0.017409 -0.302085 -0.150986 -0.234748 -0.490843 0.089926 -0.150289 -0.141209 0.009576 -0.085698 -0.091985 0.023847 0.097719 0.154191 -0.131348 0.149034 -0.055807 -0.421024 0.022815 -0.080340 -0.249068 -0.018074 -0.107667 0.289255 0.197793 0.209526 -0.055473 -0.194014 -0.201106 0.076278 -0.028185 -0.226510 -0.012975 -0.032182 0.217761 -0.171792 -0.100257 0.009024 0.017551 0.293510 -0.012019 -0.017892 -0.202167 -0.488066 -0.071121 -0.005394 -0.013260 0.216539 0.104649 0.197401 -0.426242 0.325703 -0.154568 -0.156931 -0.156112 0.331742 -0.423165 -0.085054 -0.159364 0.449103 -0.049673 -0.082863 -0.340143 -0.167471 -0.106839 0.009657 0.176962 0.091205 0.210522 0.108149 0.001108 -0.235052 0.322182 0.075307 0.246180 -0.171466 0.177507 0.232726 0.003316 -0.133050 -0.041683 0.008904 0.294825 -0.211511 0.052031 0.055199 0.217810 -0.193300 0.146296 
176 -0.062549 0.305945 0.212771 -0.147183 -0.236009 0.486211 0.167110 -0.310922 0.142854 -0.034994 -0.054554 -0.211756 0.255760 -0.107764 0.079257 0.054264 0.022554 0.249864 0.026995 0.018264 0.171991 -0.255304 0.014780 -0.051380 -0.064554 -0.035463 0.101965 -0.169450 -0.238785 0.371973 0.209113 -0.362583 0.252447 -0.061563 0.195438 -0.012578 -0.045043 -0.042941 -0.272070 -0.365257 -0.141226 -0.383272 0.093819 -0.147049 -0.095238 0.106976 0.163731 -0.049527 0.077257 0.236468 0.172036 0.129981 0.101603 0.043894 -0.275822 -0.491440 -0.115025 0.196546 -0.223922 -0.127693 -0.356996 0.344239 0.142347 -0.196599 -0.115539 0.188229 -0.077868 0.024567 0.089990 0.035339 -0.024249 -0.287967 -0.206774 0.177520 -0.161829 0.018362 0.023033 0.138443 -0.132830 0.032662 0.029568 0.642016 -0.872077 -0.382507 -0.286161 0.081785 0.036411 -0.072294 -0.023805 0.014771 0.181595 0.072750 -0.149137 -0.002818 0.335819 -0.186730 0.085355 -0.276398 0.239476 -0.294947 0.128817 -0.199453 -0.126989 -0.015970 -0.115509 0.321150 0.319421 0.291065 -0.137902 -0.039651 0.123047 -0.163001 -0.003664 -0.384914 -0.143634 -0.314868 -0.005413 -0.000187 0.104459 -0.115813 0.226020 0.070975 0.188234 0.119393 -0.100915 0.086438 0.003029 0.309971 
89 -0.276016 -0.135897 0.102797 0.166950 -0.026858 -0.116526 -0.020899 -0.150387 -0.014298 -0.054421 -0.030275 0.239700 0.115183 -0.101170 0.124514 -0.316398 -0.016184 0.093665 0.222595 0.169999 -0.091522 -0.030395 -0.097226 -0.186414 0.203240 -0.392209 -0.179937 0.079259 -0.230916 0.131755 -0.168441 0.020678 0.014778 0.052740 -0.040313 -0.032667 -0.066993 0.127417 0.002624 -0.236593 0.091035 0.034995 0.049616 0.196203 0.051837 -0.191453 0.221777 0.055902 0.081786 0.371368 0.013792 0.173947 -0.031869 -0.043874 0.107335 -0.203532 0.065424 0.064404 -0.008784 -0.015971 0.133362 0.271983 0.090134 0.074264 0.153619 0.089132 0.072930 -0.078234 0.196944 -0.345249 0.004584 -0.331786 -0.046601 -0.335704 -0.184766 -0.174116 0.206341 -0.306867 -0.102216 -0.167062 0.415852 -0.131751 -0.844510 0.105502 0.151843 0.341081 0.531573 -0.196729 -0.145575 -0.407819 -0.110011 0.185265 0.089052 -0.464626 0.191435 -0.162267 -0.207040 -0.297116 0.025737 -0.358069 -0.096680 0.169184 0.269330 -0.136078 0.042353 0.014117 -0.254636 0.337299 0.066803 0.020104 -0.002943 0.054209 -0.166776 0.175829 -0.083971 -0.003545 -0.112684 -0.053340 0.098853 0.043070 0.041543 0.192653 -0.161667 -0.277002 -0.137030 -0.000064 -0.473083 -0.170593 
12 -0.029459 -0.076937 -0.077487 -0.142520 -0.426541 0.136088 -0.140916 -0.227492 0.289175 0.238916 -0.008215 0.042438 -0.037987 0.182705 0.068394 0.164487 -0.032259 0.462383 0.352631 -0.195884 -0.286292 -0.070715 -0.195514 -0.343534 0.019447 -0.354276 -0.070691 -0.097068 0.198718 -0.022690 -0.110031 -0.218140 0.329651 -0.152871 0.170868 -0.131066 -0.092731 -0.247110 0.184767 -0.045781 -0.094136 0.144935 0.108351 -0.113170 -0.000063 0.154545 -0.009193 -0.224541 0.107136 -0.079628 0.421787 0.197500 -0.153520 -0.030822 0.016331 0.128989 0.162362 0.321418 -0.240465 -0.151140 0.030380 0.374585 0.010350 0.320084 0.161820 0.188665 -0.007152 0.176174 0.161280 0.023550 0.389064 -0.191773 0.323639 0.033422 -0.114104 -0.305134 -0.094754 0.104777 -0.058415 0.166043 -0.010331 -0.307327 -0.514535 -0.185542 0.178641 -0.371877 0.188049 0.177450 -0.001608 -0.137174 -0.004168 -0.326940 0.149465 -0.104131 -0.027422 -0.131038 0.274317 -0.101595 -0.014339 -0.282419 -0.132720 0.191654 0.114193 -0.139970 -0.128270 0.315440 -0.299813 0.101915 0.233159 -0.118601 0.020968 0.028319 -0.083611 0.247630 -0.186760 -0.116264 -0.061807 0.075442 0.231357 0.151988 -0.140553 0.009928 -0.262917 -0.434616 -0.047646 -0.144873 -0.308492 -0.125192 
202 -0.395452 -0.032219 0.068804 0.036244 -0.008418 -0.218934 -0.058539 -0.533663 -0.106838 -0.138237 -0.089751 0.070042 -0.083197 0.081030 -0.141968 0.118508 0.038403 -0.300133 0.218365 0.434379 -0.176467 0.020745 -0.276530 -0.160963 0.272130 -0.020648 -0.158230 0.004917 0.267303 -0.092480 -0.196419 0.082141 -0.023396 -0.004357 0.146118 -0.055691 -0.124351 0.130266 -0.118340 -0.226255 0.197448 -0.114564 -0.099089 -0.341876 0.146068 0.156080 -0.469910 0.200692 0.161692 -0.104082 0.223503 -0.107361 0.110922 -0.251942 -0.361353 -0.409320 -0.227176 -0.135447 -0.204686 -0.231177 0.329287 -0.223370 -0.305132 -0.285601 0.194115 0.150622 0.187107 0.034992 -0.142063 0.084464 -0.027181 -0.024764 -0.012709 -0.127861 -0.406741 -0.384679 0.102779 -0.373609 0.174775 -0.193854 0.384092 -0.223875 -0.651042 0.005043 0.164791 -0.117254 -0.440958 0.142540 0.210090 0.107429 -0.195054 0.187644 0.062043 -0.102181 -0.061630 0.024539 0.084739 0.013029 0.107788 0.097306 -0.128160 -0.015050 -0.003854 -0.067559 0.263064 0.062731 0.031383 0.125527 0.130142 0.057985 -0.145983 -0.213875 0.301770 -0.238593 -0.215075 0.164164 -0.090327 0.064205 -0.078793 -0.001243 0.091754 0.475551 0.065640 0.020961 -0.104288 0.149843 -0.055956 0.248636 
234 -0.105712 0.114475 0.103052 -0.025920 -0.223497 0.016218 -0.296542 -0.192679 0.381825 0.281839 0.093949 0.289612 0.022220 -0.027062 -0.234595 -0.043580 -0.383046 -0.037349 0.394126 0.001683 0.295799 -0.260470 -0.275785 0.226429 0.018509 0.163241 0.090624 -0.184725 -0.183777 0.244949 -0.386773 -0.209673 0.303734 -0.104940 -0.015592 0.023102 0.187552 0.077765 -0.155864 -0.248101 0.035195 0.123235 -0.334684 -0.459748 -0.372181 -0.054774 0.044574 -0.166774 -0.451492 -0.351498 -0.391930 -0.143066 0.023426 0.280689 -0.322094 -0.226465 0.018713 -0.375044 -0.194591 0.034975 -0.001461 -0.108328 0.152045 0.251132 0.371424 -0.174308 0.116147 -0.144425 0.039480 0.043159 -0.021309 -0.037988 0.059701 0.282086 -0.144878 0.112648 0.241672 0.039962 -0.181878 -0.285836 0.268547 0.359728 -0.571949 -0.273385 -0.071827 -0.275348 -0.196848 -0.004547 0.170360 -0.401831 -0.021803 -0.062651 -0.013949 -0.209939 0.241863 -0.219761 -0.022828 0.225187 -0.032478 -0.064804 -0.129142 0.397802 -0.395340 -0.015407 -0.059162 0.063456 -0.129048 -0.048955 0.192705 0.117176 -0.098656 -0.043135 -0.116245 -0.186123 -0.400472 -0.304227 0.231478 -0.050974 -0.051669 -0.043093 0.057191 -0.017799 0.103641 -0.085742 0.249951 -0.108153 0.057270 -0.062957 
275 0.235515 0.269081 -0.173140 -0.242313 0.116995 0.284741 -0.135989 -0.492511 0.071492 0.576085 -0.227920 -0.349301 0.392349 -0.042149 -0.258098 0.209070 0.059748 0.031595 -0.306013 0.000068 -0.347819 0.028225 0.082055 0.407093 0.083259 -0.257851 0.114081 -0.337479 -0.072940 -0.197403 -0.030191 0.160599 -0.160430 0.203115 -0.037386 -0.034624 0.122148 -0.232349 -0.408642 -0.173697 -0.245076 0.082905 -0.148072 -0.274545 0.345189 -0.064343 0.254521 -0.073434 -0.105099 0.067819 0.467241 0.451701 -0.247530 0.091560 0.096070 -0.058427 0.062933 0.139210 0.030486 0.295506 0.011457 0.308724 0.219932 -0.023285 -0.487303 -0.089505 -0.419705 -0.129713 -0.456225 -0.035766 0.165947 -0.433448 -0.311367 0.161007 0.188237 -0.013047 -0.008695 -0.175921 0.029513 0.239140 0.442254 -0.143378 -0.786878 0.428028 0.438387 0.074894 -0.104020 0.405237 -0.119519 -0.038588 -0.096222 0.119830 -0.052290 0.054583 -0.013579 0.355945 0.150078 -0.111186 -0.319728 -0.037122 -0.336786 0.393874 -0.247115 -0.166756 0.238904 0.379656 -0.071452 -0.055717 -0.037960 0.199825 -0.148385 0.038260 0.153355 -0.017494 -0.004386 -0.086616 0.054155 0.037735 -0.063494 -0.180480 -0.435963 0.074123 -0.148619 0.252166 0.205626 -0.084695 -0.030364 -0.028660 
357 -0.220487 -0.062621 0.017876 -0.429980 -0.091368 -0.116929 -0.004282 -0.282093 0.031479 0.181159 0.077160 -0.022149 0.170518 -0.078876 -0.133304 -0.157157 -0.105945 0.178311 0.335444 -0.174909 0.299152 0.492023 -0.254853 0.063259 0.206712 0.068902 0.148656 -0.342302 0.162524 -0.038945 -0.134991 -0.064392 0.315741 0.055439 -0.483094 -0.032374 -0.191930 -0.254336 -0.172033 0.404400 -0.197817 -0.242391 0.252626 -0.067070 -0.013246 0.188189 -0.023422 -0.102875 0.334151 -0.045696 0.148146 -0.176385 0.149929 -0.100066 0.026889 -0.103429 0.146950 0.096997 0.076769 0.228014 0.293111 -0.392961 0.247238 0.264925 0.084769 0.162198 -0.198533 -0.051324 -0.004854 -0.245725 -0.152143 0.190248 -0.070532 0.171942 -0.197301 0.091789 -0.024059 -0.182992 0.074823 0.220363 0.047966 0.007709 -0.738389 0.376319 -0.318390 0.047920 -0.204649 -0.151366 -0.167617 0.035191 0.085466 0.053700 -0.061564 -0.258128 -0.184403 -0.071066 -0.175705 -0.195858 0.275018 -0.057922 0.146875 0.275620 -0.279539 -0.111981 -0.116692 -0.143745 0.130727 0.273414 -0.260899 -0.001995 -0.036436 -0.297286 -0.226500 -0.081888 0.162454 -0.153958 0.042325 0.045538 0.241253 0.287751 0.226476 0.120038 -0.152347 -0.087466 -0.011727 -0.080243 -0.274008 0.256927 
276 0.077194 0.070203 0.046212 0.001064 -0.137140 -0.222659 0.011468 -0.377733 0.235203 -0.088819 0.194314 -0.230452 0.116802 0.183491 0.075233 0.593647 0.022080 0.030235 0.540892 -0.385960 0.114641 0.258334 0.127191 -0.247246 -0.120132 -0.066496 -0.245937 -0.521985 -0.076232 -0.069904 0.085000 0.119298 0.116848 0.010942 -0.052597 0.048449 -0.117776 0.066106 -0.046731 -0.293283 0.084620 0.185130 -0.213247 -0.168080 0.016766 -0.230202 0.747377 0.035797 -0.367457 -0.093710 0.333707 -0.052840 -0.118446 0.030105 0.153020 -0.131734 -0.202987 -0.282642 0.321739 0.217244 -0.073802 0.332847 -0.179673 0.088293 -0.251612 0.183515 -0.322321 -0.082981 0.053142 -0.078100 0.075141 -0.343475 0.149683 0.022507 -0.048683 -0.153914 -0.157884 0.263310 0.138085 0.300248 0.034375 0.127349 -0.435634 0.246452 0.302200 0.229443 -0.070165 0.211987 0.236831 -0.151900 -0.378550 0.252284 -0.078238 -0.001258 0.154810 0.125312 0.316363 -0.070829 -0.250964 -0.130324 0.017285 0.396967 -0.040887 0.116549 0.012935 0.389290 -0.106976 -0.134775 -0.018598 0.136702 -0.234138 0.127435 -0.010729 -0.001624 0.075534 -0.104457 0.185366 0.174546 0.111804 -0.222110 -0.203118 0.028629 -0.292580 -0.002217 0.210065 -0.270365 -0.316602 0.086379 
328 -0.212925 0.270814 0.143052 -0.117189 0.074998 -0.106082 0.315511 -0.444899 0.318655 0.312179 -0.045634 -0.048557 0.438902 -0.091542 -0.024782 -0.014638 0.356805 -0.136561 0.369592 0.254412 0.074568 -0.338647 0.246658 0.056954 0.037712 0.142465 -0.272192 -0.266309 -0.136600 -0.014540 0.515633 -0.073095 -0.019264 -0.022982 0.223990 0.224402 -0.128513 0.098084 0.365831 -0.362557 0.237069 0.169850 -0.117541 -0.218414 0.092651 -0.282609 -0.148492 -0.116478 -0.143245 0.195297 -0.461400 0.077946 0.293902 -0.110022 0.202815 0.041882 -0.324530 -0.017364 -0.117819 0.088330 -0.017645 0.343073 0.069705 0.080020 0.215832 0.094942 -0.603668 -0.389211 0.044866 0.226086 0.021099 0.068600 -0.230349 -0.106085 -0.386058 -0.439786 -0.016321 0.173206 -0.224614 0.083571 -0.046977 0.274325 -0.442301 -0.156992 -0.564749 0.388827 -0.167667 0.062076 0.139752 -0.070117 -0.265048 -0.132861 -0.094806 -0.092680 -0.001248 0.136024 0.430004 -0.053975 0.028161 -0.081103 -0.037461 0.104834 -0.335699 -0.014509 -0.475803 -0.189386 -0.091144 -0.280464 0.529160 -0.428471 -0.203523 0.217799 -0.011793 0.255604 0.217848 -0.037814 -0.163311 0.075175 0.017434 0.173622 0.027257 -0.190386 0.164333 -0.143828 -0.147553 0.061044 -0.175494 -0.149196 
483 0.057653 0.162750 -0.295274 -0.145424 0.022291 0.374446 -0.336132 -0.392822 0.036389 0.244623 0.310002 -0.279364 -0.138692 0.064107 -0.042507 0.080310 -0.252073 -0.098025 0.160719 0.158403 -0.121700 -0.013505 -0.105325 -0.051825 -0.071910 -0.095677 -0.083728 0.046632 0.034943 -0.050016 -0.380023 0.225863 -0.069200 0.190822 0.018761 -0.048646 0.365174 0.006588 0.204631 -0.015151 -0.185773 0.298911 -0.030640 0.019191 0.295999 0.217890 -0.358302 -0.156702 -0.046824 -0.157779 0.355942 -0.057179 0.411142 -0.105456 0.142543 0.082744 0.103291 0.097507 -0.058042 -0.173163 0.142539 -0.146313 0.031894 0.615092 0.175264 0.246965 -0.188436 0.106351 -0.028402 -0.138362 -0.060141 -0.046126 -0.080678 -0.165851 -0.169019 -0.449218 0.072438 -0.053715 -0.106986 0.235067 -0.409458 -0.189836 -0.734544 -0.326721 -0.112131 0.181191 -0.180409 0.276308 -0.066752 -0.430335 -0.175282 0.076895 -0.203492 -0.156884 -0.039778 -0.208195 0.208986 -0.202965 0.228735 -0.168451 -0.421337 0.109707 -0.304687 -0.003683 0.032168 0.158935 0.001662 0.277441 -0.244193 0.273761 0.098769 -0.025638 0.014214 0.136631 0.348761 0.196689 -0.059368 -0.125310 -0.287179 0.301793 0.091608 0.350373 -0.008504 0.031206 -0.384785 -0.057854 -0.091581 0.164960 
111 -0.383249 -0.158541 0.153610 -0.147516 -0.017972 -0.163820 0.147882 -0.238932 -0.217732 0.010235 0.090399 -0.442695 0.115355 -0.234571 -0.295357 0.171739 0.200169 0.113339 -0.175556 -0.391115 -0.109930 -0.389120 0.137356 -0.125898 -0.080197 0.037988 -0.267864 -0.453013 0.059354 -0.079794 0.430317 -0.050248 -0.163766 0.011335 -0.024396 -0.146926 -0.043199 0.205330 -0.326605 0.167283 -0.180319 -0.238259 -0.224284 -0.167259 0.145827 -0.049612 -0.288357 -0.072732 0.199999 0.481703 0.041272 0.047928 0.004954 -0.082565 -0.150856 0.047708 0.471866 0.050932 0.085871 -0.183653 0.251275 0.261324 0.271479 -0.177561 -0.135938 0.065339 -0.503659 -0.221210 0.118842 -0.265762 0.120407 0.163801 0.272865 -0.103311 -0.071572 -0.123446 0.182097 -0.265438 -0.227543 0.295891 -0.283362 0.065495 -0.717755 0.200741 0.126063 0.079263 -0.147808 0.065301 0.389717 0.018835 0.231230 0.152012 0.325629 0.055275 -0.237501 -0.092517 -0.110680 0.118625 -0.258205 -0.153277 -0.292885 0.445116 -0.234818 -0.097490 -0.415462 0.306002 -0.172995 -0.139128 -0.065633 0.083597 -0.178267 -0.001300 0.090752 -0.128877 0.181275 -0.091068 0.143604 0.419924 0.005479 -0.240097 0.076048 -0.056207 0.234610 0.144015 0.021143 0.023391 0.059237 -0.074194 
742 -0.150499 -0.112491 -0.116808 0.236561 -0.006862 -0.036711 0.233670 -0.155313 -0.032845 0.099676 0.562604 -0.272537 0.221944 0.000810 -0.370951 -0.108542 -0.278650 0.224262 0.236609 0.120032 -0.142080 -0.000486 0.030645 -0.155425 -0.013952 -0.075405 0.444550 -0.114173 0.226456 -0.272046 -0.064939 -0.020057 -0.074498 0.125511 0.328424 0.422874 0.097912 0.199085 -0.264625 0.186902 0.097469 0.079403 -0.034283 -0.252270 -0.099083 -0.023917 0.130751 0.158403 -0.340939 0.265144 0.120770 0.094034 0.054159 -0.209363 -0.023441 0.745294 -0.089885 0.384988 -0.110095 0.170307 0.437165 0.102199 0.470724 -0.117783 0.251684 -0.154594 0.086569 0.003167 -0.155162 -0.119393 0.254624 -0.213009 -0.332083 0.261439 0.035822 0.245571 0.139781 0.020674 -0.085867 -0.134735 0.099280 0.116138 -0.700902 -0.301320 -0.104099 -0.162211 -0.247512 -0.099661 0.520171 -0.014692 -0.108137 0.214634 0.169125 -0.146175 -0.053993 -0.003026 0.083614 0.081862 0.126955 -0.019181 0.068728 0.099161 -0.063694 -0.183532 -0.444378 0.419943 -0.150866 -0.213250 -0.021593 0.178777 -0.189441 -0.099431 0.014127 0.245504 0.071045 -0.109967 0.146912 0.237693 0.117851 0.000610 -0.160332 0.242711 0.471569 -0.029629 -0.328805 0.077887 -0.075224 0.007346 
25 -0.139540 0.042507 -0.202446 -0.409465 -0.092132 -0.360602 -0.017259 0.044790 0.221575 0.265877 0.268662 -0.174707 0.043881 0.039765 0.001996 0.242191 -0.193771 -0.332937 0.128639 0.188790 -0.293588 -0.148822 0.050177 0.337836 0.010180 -0.192343 -0.358699 -0.246118 0.274265 0.292650 0.154066 -0.125752 -0.447216 0.187818 0.140130 -0.049650 -0.168042 -0.236764 0.346241 -0.077795 -0.043644 -0.025597 0.110357 0.168980 0.125482 -0.091209 0.020207 0.086901 -0.056035 0.218646 -0.216433 -0.066972 0.191767 0.165298 -0.000608 0.005746 -0.230712 -0.230430 -0.108230 -0.082683 0.155895 0.188217 0.199956 -0.032278 -0.163217 0.100958 -0.460218 -0.215283 0.358625 0.004190 -0.180682 0.478280 -0.136720 0.214857 -0.368729 0.203548 -0.313237 -0.005653 -0.154763 -0.140632 -0.635478 0.014350 -0.721634 -0.080673 0.105860 0.045028 0.044442 -0.246356 0.157856 -0.364863 -0.069574 0.010534 0.169853 -0.197663 0.229630 0.302736 0.008413 0.365797 -0.057741 0.141982 0.145161 0.187659 -0.242526 -0.418829 0.003953 0.203150 -0.034051 0.183194 -0.380903 0.048567 -0.134575 -0.168822 0.300562 0.231515 0.255762 -0.022496 -0.273984 0.146519 -0.106510 -0.382591 -0.074702 0.119893 0.128427 0.390658 0.088561 -0.085234 0.123088 0.238507 
194 0.102808 0.252810 -0.083733 -0.098114 -0.045974 0.259716 0.279521 -0.324305 0.025249 0.114275 0.110878 0.028507 -0.245832 0.090830 0.401869 0.096646 0.078521 -0.269926 0.224143 -0.078916 -0.129209 0.012989 0.559757 0.165356 0.238076 0.045469 -0.141576 0.177365 -0.118338 -0.019171 -0.007896 0.026594 -0.097551 -0.166414 0.607116 0.060421 0.184450 -0.038778 -0.258853 -0.024684 0.157285 -0.171425 -0.316833 -0.115922 0.029320 0.226442 -0.211001 0.188742 0.196485 -0.391286 -0.095059 0.010365 -0.092144 0.040565 0.226185 0.372213 0.032930 -0.155319 0.249837 -0.296285 -0.072146 0.304649 0.460195 0.112711 0.328927 0.120188 0.168838 -0.051278 0.152677 -0.095861 0.017757 -0.450705 0.191673 0.197850 -0.126541 0.052418 -0.066891 0.011931 0.200822 -0.058564 0.078351 -0.238764 -1.027452 -0.222824 0.314372 -0.146764 -0.180691 0.348447 -0.053593 0.216222 0.100316 -0.172378 0.288996 -0.225741 0.087232 -0.257967 -0.127244 0.155224 -0.045013 0.010353 0.182847 -0.327065 0.528906 0.368539 0.170507 0.083955 0.102008 0.058596 -0.027990 0.206199 -0.219599 0.361222 -0.069116 -0.112101 -0.052736 0.287228 -0.060196 0.083473 -0.408886 0.114724 -0.041075 -0.290109 -0.139953 0.222094 0.028867 -0.191637 0.325117 -0.040848 
196 -0.235351 -0.090675 -0.221776 -0.483375 0.124282 0.068680 0.156387 -0.659701 -0.203629 -0.044485 -0.249219 -0.039516 -0.041271 -0.169016 -0.135216 -0.027387 -0.484063 -0.234191 0.465930 0.042832 -0.182281 0.204386 -0.187497 -0.149778 -0.038554 -0.254301 -0.152822 0.097784 0.062753 0.041859 -0.326999 0.052979 -0.001343 -0.494412 -0.316716 0.233993 -0.135225 0.207825 0.202754 0.223025 0.193195 0.045683 0.185622 -0.218093 -0.004256 -0.266479 0.051549 0.129927 0.100728 -0.095407 0.175232 0.071007 -0.045004 -0.049493 0.074875 0.150951 0.143795 0.036889 0.071777 -0.368312 0.234308 -0.098421 0.269346 -0.079512 0.252671 -0.003006 0.375124 0.205197 0.226942 -0.072657 -0.082359 0.004920 0.190769 0.316400 0.189938 0.128342 0.018775 0.035925 -0.183040 0.033127 0.074274 0.296511 -0.718406 -0.109932 0.250966 -0.256270 0.096640 -0.009149 -0.007485 -0.041438 -0.313710 0.457830 0.191823 0.301774 0.234490 -0.034620 -0.005295 -0.007925 0.045076 0.079636 -0.003635 0.109271 -0.000076 0.256630 0.221030 -0.113513 -0.081729 0.208195 0.084129 0.203081 0.153111 -0.122823 0.007980 0.224132 0.323578 0.269568 -0.034573 0.242964 -0.052677 0.028459 0.186118 0.224525 0.033691 0.113329 -0.067702 -0.078767 -0.140090 -0.259856 
135 0.136602 0.179472 0.296541 0.069983 0.030352 -0.012948 -0.198814 -0.263126 0.120127 0.047379 0.099568 -0.214725 -0.411889 0.196990 -0.056528 0.019808 -0.199164 -0.342326 -0.053965 0.399441 0.058545 -0.066375 -0.137632 -0.486404 0.314848 0.033089 0.075162 -0.248534 -0.066393 0.064887 -0.492580 -0.410056 -0.088680 0.330732 0.051087 0.223764 0.125331 -0.018024 -0.069425 0.234976 -0.183546 -0.314960 -0.195597 -0.297512 -0.053666 -0.134344 -0.267763 0.091865 -0.040987 -0.214230 0.140276 0.276292 0.256990 0.070529 0.187070 -0.027107 0.258239 -0.029766 -0.313320 0.202489 -0.263364 0.138305 0.203576 0.023044 0.235712 0.343402 0.084990 0.479105 0.059256 0.186083 -0.138076 -0.477742 0.152074 0.434270 -0.003112 -0.253549 -0.009468 0.142671 -0.161239 -0.022198 -0.146896 0.292386 -0.737206 0.121552 0.176876 0.016219 -0.080611 -0.276099 -0.351669 -0.379014 0.250291 0.007870 0.123481 -0.079355 -0.083370 -0.053801 -0.074613 -0.045489 -0.423824 -0.145451 -0.111115 0.176681 0.306441 -0.045211 0.257815 0.023403 0.014681 0.063913 -0.086070 0.287411 0.422122 -0.032574 -0.071834 0.121862 0.008353 0.184684 -0.387865 0.156572 0.376376 -0.085908 -0.067152 0.208653 -0.090853 0.032851 -0.119316 0.201506 0.143888 0.163939 
238 0.083092 0.215427 -0.014151 -0.321871 -0.034675 -0.085903 -0.191800 -0.076568 0.291601 0.045799 0.114914 0.116106 0.387556 -0.049793 0.023849 -0.190853 -0.224380 -0.360647 0.306795 -0.225173 0.041305 -0.079901 -0.065476 0.085434 -0.307866 -0.115876 0.184782 -0.271298 -0.179864 -0.200647 0.290262 -0.142764 0.051149 -0.186981 0.220582 -0.266942 -0.100005 0.182204 0.006187 -0.185405 0.159594 -0.032523 -0.504333 -0.084407 0.408989 0.202113 -0.091993 -0.265333 0.052544 0.210993 0.101397 0.254400 -0.178835 0.054218 0.084756 0.058328 -0.045323 -0.363318 0.175176 -0.065158 -0.118430 -0.328609 0.300061 -0.181767 0.255343 0.637686 0.061922 -0.202970 -0.070400 -0.079035 -0.604426 -0.228312 0.117494 -0.160418 0.289161 -0.200553 0.076524 -0.399709 -0.239144 0.000245 -0.051864 -0.349097 -0.603031 -0.323837 0.077719 -0.360366 -0.102277 0.043732 -0.158558 0.048519 -0.295437 0.175472 -0.007666 0.244579 -0.344573 0.203183 0.025520 -0.111412 0.410403 0.178609 0.155989 0.335008 0.244892 0.024347 -0.298677 -0.242448 0.222669 0.223947 0.095921 -0.069475 -0.136011 -0.009154 0.080819 -0.093650 0.008397 0.379335 -0.048895 -0.071256 -0.071329 0.036110 0.059521 -0.007510 -0.070584 0.054752 0.068076 0.058192 -0.285544 0.014575 
186 -0.194668 0.108199 -0.067236 0.047317 0.016624 0.027970 0.010499 -0.207813 -0.325174 -0.144443 0.167915 -0.241781 0.134785 -0.120779 0.150962 0.049384 0.059110 0.025133 0.228776 -0.135740 0.088171 0.060584 -0.217140 -0.183594 0.007984 0.258849 0.219523 -0.508738 -0.508782 0.072321 -0.123014 0.010101 0.048041 -0.086936 0.080484 0.068037 0.208360 -0.050556 0.060063 -0.230410 0.293810 0.287749 -0.154436 -0.115012 0.078381 0.148072 -0.168088 -0.101854 0.241082 -0.180576 0.089351 0.058486 0.575532 0.089943 0.135778 -0.217714 0.117207 -0.193182 0.109291 -0.034162 -0.013421 -0.150737 0.291106 0.312649 0.158331 0.204013 -0.018729 0.406389 -0.103739 -0.324308 0.340382 0.142725 -0.076583 -0.204821 0.049685 -0.085035 0.113123 0.189149 -0.109821 -0.337127 -0.059586 0.022020 -0.548939 0.373268 0.301013 0.099366 -0.273731 -0.135335 -0.162736 0.078266 -0.106874 -0.394396 -0.491237 0.018713 -0.158081 0.041135 -0.200947 -0.104711 -0.123671 -0.138579 0.141731 0.025464 -0.203801 0.278697 0.197903 0.039018 -0.240117 0.172523 0.174541 -0.117359 0.150138 0.216842 -0.147454 0.418270 0.171143 -0.067753 -0.533899 -0.007720 -0.044643 -0.128972 -0.239438 0.167799 0.017757 0.313580 0.129484 -0.164306 -0.218159 -0.025425 
132 -0.132308 -0.341603 0.211327 -0.001251 -0.264949 -0.030969 0.304950 -0.054497 0.130794 0.162623 -0.015026 -0.176877 0.148140 0.127608 0.177212 0.001661 -0.058806 -0.008127 0.252583 -0.402966 0.211954 -0.184872 -0.219961 -0.224298 -0.057325 -0.275273 0.026854 -0.077813 -0.061345 0.129738 -0.069935 -0.057401 -0.221156 -0.315422 0.282407 0.674169 -0.082368 -0.228390 0.103092 0.301281 -0.067915 -0.008162 0.012754 -0.225046 0.302829 0.027332 0.381681 -0.336874 0.288743 -0.265114 0.185867 0.221503 0.136851 -0.225022 0.313897 -0.335678 0.100176 0.143242 0.234170 -0.014320 -0.075066 -0.132043 0.290083 0.271967 0.037550 0.029645 0.161819 0.029766 0.285841 0.109232 0.211182 -0.385848 -0.020401 -0.030200 -0.001870 0.016897 0.294339 -0.303182 0.701376 -0.304767 -0.017333 0.073168 -0.775385 -0.036021 -0.057765 -0.324283 -0.255200 0.267075 0.049428 -0.019008 0.016782 0.167980 0.230564 -0.098514 0.463443 -0.010683 0.506383 -0.122094 0.080238 -0.209219 0.002380 0.176260 0.364243 0.329463 0.345906 -0.108904 -0.388977 -0.190712 0.001490 0.152381 0.105223 0.092619 -0.001146 -0.135058 0.186226 0.227089 -0.356206 -0.050540 -0.201312 -0.059390 0.069199 0.121073 -0.091369 0.114544 -0.085592 -0.081194 -0.542219 -0.003609 
82 -0.252680 -0.277345 -0.137363 -0.106613 -0.228520 0.023895 -0.150155 -0.035241 0.064431 0.116711 0.175253 -0.248511 -0.031375 0.004289 -0.357407 -0.214086 0.043497 0.052198 0.424509 0.152737 -0.217050 -0.126133 -0.330549 -0.072147 0.289522 -0.042709 -0.141820 -0.217662 0.067220 0.119833 0.001741 0.472685 0.449479 -0.258650 -0.043064 -0.160734 -0.403906 -0.063095 0.031708 0.526231 0.189876 -0.276728 -0.015138 -0.048223 -0.000442 0.251437 0.037002 -0.212835 0.341345 -0.009279 0.336143 0.376475 -0.002641 0.235493 0.121642 0.269958 0.065997 0.435705 -0.131482 0.372422 -0.128275 0.116034 0.077332 0.000828 -0.133984 -0.110478 0.393291 -0.018009 0.168570 -0.073898 -0.374424 -0.342807 0.152405 0.074902 -0.149447 -0.084470 -0.431153 0.299911 0.051719 -0.422567 0.133779 -0.077374 -0.585899 -0.191771 0.103796 -0.133506 -0.001145 -0.040926 0.351703 -0.177948 0.472104 -0.056431 0.217722 -0.230768 0.006825 0.146511 -0.142543 0.073011 0.192852 0.030108 0.136285 0.089758 0.235391 0.399337 0.013021 0.003154 0.121318 -0.165359 0.379408 -0.344261 0.309145 -0.010468 0.014799 -0.165771 -0.208727 -0.066015 -0.131711 -0.378672 -0.173316 -0.009226 -0.180831 -0.277764 -0.096380 -0.080099 -0.364570 0.318597 0.134316 0.041786 
70 0.087965 0.097807 -0.141376 -0.135352 0.152077 0.155717 -0.007017 -0.041941 -0.402911 0.252647 0.057373 0.075370 0.219597 -0.085263 -0.139982 0.436098 -0.199847 0.162175 0.514481 -0.007164 -0.184213 -0.147548 -0.190924 -0.263208 -0.003801 -0.198006 -0.026185 0.194234 0.087903 0.088192 -0.005060 0.125758 0.081099 0.017655 -0.050319 0.136391 -0.063468 -0.145560 -0.166457 -0.248633 -0.184794 0.178998 -0.215027 -0.703756 0.123629 0.165631 -0.129624 -0.066265 -0.312894 -0.068536 -0.111556 0.169027 0.226101 -0.369166 -0.095063 0.011060 -0.004334 0.037123 0.035751 0.315632 0.322000 0.309706 -0.010500 -0.136323 -0.001037 0.063093 0.250350 -0.159008 -0.469914 0.149587 -0.335043 -0.244048 0.233546 0.048062 -0.044797 -0.402349 0.493311 -0.253407 0.015560 0.242951 -0.263224 -0.173227 -0.579778 0.225240 0.106132 -0.258250 -0.277122 -0.010314 -0.080496 -0.104683 -0.168116 -0.136591 0.491801 0.198159 0.108474 0.105243 0.021531 -0.209184 -0.028384 0.114427 -0.046898 -0.217123 -0.413462 -0.118305 -0.028374 0.035054 0.109889 0.375566 -0.008459 0.146062 -0.337045 0.506614 0.061258 -0.007866 -0.034480 0.212440 0.120760 -0.077677 -0.103609 0.254007 0.003593 0.234505 -0.298408 0.246444 0.736508 -0.038038 -0.006523 -0.002735 
228 -0.298419 0.049642 0.020554 -0.010572 -0.420104 -0.144313 0.148409 0.029965 0.169323 -0.098060 0.028590 -0.290113 0.322186 -0.291714 0.287177 0.065404 -0.097292 -0.253487 0.357629 0.240053 -0.223239 -0.245900 -0.192323 -0.113847 -0.186617 0.291026 0.406765 0.029809 -0.418486 -0.024641 0.023876 0.019264 -0.089677 0.164745 -0.276094 -0.094227 0.455389 -0.242988 0.368647 0.127060 0.256655 0.278297 0.112742 -0.297049 0.138367 -0.199354 -0.047851 0.142483 -0.131067 -0.096719 -0.038341 0.180086 0.547586 0.094233 0.075003 -0.154644 -0.024298 -0.126337 -0.418307 -0.115679 -0.097797 -0.078853 -0.056528 0.133977 0.039619 -0.136722 0.160910 -0.058976 0.286282 -0.316443 -0.185364 -0.195184 -0.338673 -0.082201 -0.152095 -0.167197 0.059736 0.208620 -0.090096 -0.372743 -0.115881 -0.373370 -0.703706 -0.018634 -0.173087 0.211253 0.322808 0.107832 -0.194410 0.197046 0.117948 0.211675 -0.090189 -0.103862 -0.038620 -0.020201 -0.012510 0.091377 -0.016425 -0.170309 0.136476 0.180880 0.050774 0.085959 0.343290 -0.066392 0.017401 0.549471 -0.018767 0.221466 -0.073419 -0.172036 0.044927 0.193549 -0.052148 0.211617 -0.033537 -0.263993 0.129576 0.303469 0.022732 0.116684 -0.022263 0.069836 0.050803 -0.136899 -0.096355 0.012446 
197 0.081079 -0.108122 0.181909 -0.066990 -0.311783 -0.149526 -0.190311 -0.519572 0.110673 -0.220058 0.060945 -0.123996 0.123936 -0.363283 0.146437 -0.022394 -0.141641 0.136689 0.446066 0.362473 0.116876 0.242124 0.007432 0.129530 0.399726 -0.303674 0.131299 0.071840 -0.134952 0.064850 -0.357662 0.090507 0.110061 0.286770 -0.042776 -0.358858 -0.065481 0.194011 -0.173597 -0.166068 0.017346 -0.081996 -0.272295 -0.095097 -0.071454 0.027139 0.355122 -0.101470 0.040068 -0.033459 -0.001836 -0.092153 -0.086536 0.317850 0.098108 -0.059185 0.012840 0.144448 -0.314883 0.181983 0.340014 -0.049697 -0.381567 -0.050772 0.385028 0.297648 -0.103542 0.343095 0.223045 0.275821 0.291172 -0.183694 -0.007849 0.187170 -0.315845 -0.001319 0.017614 0.116866 -0.164485 0.147278 -0.074346 -0.153494 -0.918273 0.116573 0.039663 -0.001352 0.304123 0.123901 -0.105641 -0.007186 0.104945 -0.042622 -0.159032 0.249926 -0.014980 -0.019680 -0.015493 0.116428 0.364595 0.058984 0.048518 0.120018 -0.190802 0.343706 -0.156576 -0.369471 0.322548 0.322501 0.300130 0.035446 -0.125452 0.007212 -0.124687 -0.164570 0.190641 0.080705 -0.054726 0.104041 -0.175100 -0.059498 -0.107584 -0.010304 -0.057571 0.020806 0.217986 0.249746 -0.211197 0.165490 
144 0.649830 -0.335782 0.065656 -0.516540 -0.159027 -0.059130 -0.115227 0.347019 -0.096700 0.087483 -0.219978 -0.414562 -0.152444 0.270661 -0.306840 0.086410 -0.331322 -0.272900 0.179882 -0.414211 0.114378 -0.160109 -0.010943 -0.440561 -0.153552 -0.024872 0.280657 -0.173887 -0.351243 -0.127187 0.059837 0.055446 0.031821 0.237212 -0.047762 -0.097487 0.048369 0.046997 -0.165130 0.163933 0.210388 0.152936 -0.173826 -0.322782 -0.091556 0.114557 0.422586 0.425977 -0.025503 -0.109723 -0.125252 -0.002338 0.140723 -0.024369 0.088710 -0.065271 -0.131731 0.161513 0.577998 0.101364 0.022374 -0.007486 0.246086 0.368963 0.307575 0.054110 -0.315415 -0.030816 -0.005703 -0.256992 0.146983 -0.049891 0.314333 0.567337 -0.158738 -0.232491 -0.209584 0.209026 0.140395 -0.108836 0.133433 -0.174817 -0.624619 -0.093326 0.445235 0.036771 0.361054 -0.116630 0.052716 -0.018730 -0.268901 -0.164434 -0.420101 -0.164813 0.063164 -0.261428 0.195911 0.184922 -0.293050 -0.246143 0.280030 0.177975 0.183133 -0.301543 0.457999 0.118463 -0.184655 0.238477 -0.145418 -0.274905 -0.154409 -0.128972 -0.203029 0.048726 -0.051508 -0.008972 0.317974 0.239250 0.015103 0.223301 0.154393 0.415574 0.164672 -0.090110 0.027379 -0.154661 0.069784 0.134964 
97 -0.188229 0.249914 0.221959 -0.321316 -0.398321 -0.133807 0.176894 -0.401430 0.333561 -0.044791 0.150056 -0.154780 -0.074154 -0.054989 -0.362136 -0.291841 -0.143970 -0.194835 0.552615 -0.056245 -0.149589 0.035090 -0.142506 -0.263513 0.289251 -0.184482 -0.024215 -0.046865 -0.304764 0.179917 -0.022876 -0.333484 0.254114 0.024214 -0.090671 0.084626 0.052016 -0.065003 -0.082806 0.140499 0.010591 0.181271 -0.353211 -0.072206 0.186802 0.145850 -0.467228 -0.141814 0.118399 -0.384280 -0.042098 0.007327 0.055679 -0.313308 -0.058428 -0.584013 0.127069 -0.203556 0.020180 0.244979 -0.139034 0.057374 0.064805 -0.089309 0.004365 0.387037 -0.026699 -0.358588 0.321189 -0.193944 0.431828 -0.248370 -0.071228 -0.005391 0.115659 0.095921 0.109846 -0.216398 -0.001172 0.189285 -0.440837 0.127931 -0.547696 -0.057563 -0.142773 0.373416 0.218420 -0.146301 0.175902 0.177370 -0.014666 -0.013868 0.138380 -0.043254 0.056908 -0.016119 -0.052502 0.117941 0.166834 0.192073 -0.144698 0.312645 0.096942 0.016742 0.285638 0.272121 -0.065703 0.062390 0.004538 -0.196583 0.149987 -0.156040 -0.067007 0.098928 -0.296434 -0.047553 -0.255850 0.090034 -0.208450 0.109159 0.007716 -0.138615 -0.103063 0.307772 -0.022139 0.320628 -0.291743 0.226461 
475 -0.202139 -0.010242 -0.563714 0.172359 0.293065 -0.084704 -0.095531 -0.036178 -0.229273 -0.136430 0.385176 0.027485 0.481548 0.103270 0.215336 0.092671 0.135925 -0.245446 0.177063 0.052817 -0.091352 -0.293330 -0.010485 0.219938 -0.156491 0.287949 0.065150 -0.045917 0.313015 0.235423 -0.330079 0.071508 0.034972 -0.087130 0.308407 0.080971 -0.355940 -0.159275 0.120247 -0.242990 0.075727 0.249908 0.052862 0.141584 -0.334731 0.082224 0.356040 -0.407942 0.123293 0.369806 0.509364 0.353814 -0.112512 0.249197 0.053148 0.061560 0.275169 -0.199798 -0.340975 0.032513 0.103407 0.301205 0.169457 -0.221019 -0.164683 0.425062 -0.017629 0.073781 0.678102 -0.089547 -0.333913 0.197408 -0.187875 -0.056251 0.199510 -0.339584 0.114974 -0.073558 0.323666 0.188233 0.263684 -0.009719 -0.735153 0.629862 -0.039689 -0.178904 0.256500 -0.258420 -0.039827 0.073075 0.193406 0.145762 0.171619 0.131862 0.076474 0.147586 0.426186 0.273496 0.180761 -0.319381 -0.008579 0.426472 -0.054599 -0.003373 -0.103193 0.107698 0.267946 0.143017 0.100793 0.049207 -0.279290 0.005125 0.103269 0.234924 -0.075921 -0.019591 0.041145 0.140850 0.080493 0.139098 -0.148078 -0.163836 -0.079722 0.472605 -0.369096 -0.305624 0.193186 0.276592 
153 0.279774 -0.222939 -0.264898 -0.229327 -0.118254 -0.403599 -0.336902 0.216367 -0.083038 0.097208 0.159264 -0.055796 -0.263749 0.116553 0.146765 -0.306608 -0.035161 -0.045444 0.421237 0.459821 0.262266 -0.228340 -0.114718 0.000722 0.088611 -0.079984 0.329492 0.030521 -0.385510 -0.011702 0.398306 0.062154 0.182740 -0.077986 -0.153049 -0.056958 0.108573 -0.414296 -0.092668 0.389854 0.285532 -0.163294 0.014189 -0.296052 0.190229 0.197735 0.054804 -0.251339 0.231764 0.248703 0.011269 -0.050213 0.005219 0.098189 0.213698 -0.153725 -0.275466 -0.042700 0.185731 -0.247733 0.033860 -0.197600 -0.124885 -0.491940 0.310848 0.316353 -0.218550 -0.467439 -0.028307 0.405820 0.107613 -0.264168 0.052444 0.016154 -0.543806 -0.236064 0.142259 -0.328056 0.361311 0.145268 -0.362265 -0.397139 -0.888048 -0.091876 -0.232438 -0.271422 -0.005977 -0.139365 0.001851 0.095130 0.162143 -0.157223 0.306434 -0.207395 0.324518 0.226985 -0.117635 0.051963 0.113226 0.058458 0.031432 0.339115 -0.168980 0.136939 -0.015973 -0.022329 -0.029188 0.030789 -0.169879 -0.027553 0.004593 0.235691 0.050141 -0.168816 0.526386 0.122735 0.003264 -0.012510 0.114149 -0.205697 0.282468 0.097931 0.563676 0.044046 0.282718 -0.495817 0.041111 -0.174319 
185 -0.316182 -0.024605 0.028812 -0.049317 0.269511 0.420368 -0.353822 -0.330285 -0.257061 -0.494655 -0.066740 -0.215401 -0.429179 -0.246095 0.092516 -0.144750 0.005879 -0.266573 0.255812 0.152948 -0.256901 -0.116475 0.082858 -0.394469 0.036607 0.088543 -0.131995 0.118648 0.029952 0.344447 -0.090260 0.040721 0.315647 0.087746 -0.139306 0.096524 0.229708 0.107195 0.157907 0.506094 0.145526 -0.289757 -0.068967 -0.384048 -0.003130 0.348323 -0.121918 -0.162847 -0.146554 -0.430124 -0.035721 0.088031 0.103263 0.143081 0.484761 -0.404801 -0.123722 -0.113807 0.021997 -0.014858 -0.196152 -0.139608 -0.061846 0.230495 0.166025 0.412475 0.367650 0.004089 0.231217 0.062172 -0.083503 0.281505 -0.184148 0.367416 0.099962 0.031179 0.007523 0.252939 0.288154 0.281897 0.188387 -0.014802 -0.807326 -0.274354 0.094539 -0.037740 -0.321771 -0.000157 -0.138959 0.173663 0.166901 0.194657 -0.121641 -0.140284 0.313069 0.275469 -0.227972 0.176646 0.004544 -0.322975 -0.056693 0.182164 -0.284459 0.160508 -0.101567 0.159764 -0.103103 0.252015 0.407119 0.055419 0.263171 0.353718 0.001610 0.082790 -0.096575 0.184544 0.040413 0.217488 0.035203 -0.081387 0.142142 0.041457 0.177446 -0.465012 0.022678 0.037396 0.056649 0.022657 
748 0.064792 0.177736 0.113291 -0.373108 -0.049020 -0.133600 0.280744 -0.544566 -0.009766 -0.176028 0.081277 -0.131616 -0.091043 -0.034510 -0.339364 0.058928 0.032759 0.022662 -0.049959 -0.036168 -0.067925 -0.231165 0.009140 0.000006 0.199373 0.302006 0.017943 -0.044614 0.400838 0.110454 0.382251 -0.042462 -0.161593 0.153412 0.218624 -0.013238 0.008083 0.086532 0.005673 0.211896 -0.079128 -0.062042 -0.116605 -0.275639 -0.108646 0.401007 -0.133100 0.480346 0.101252 0.219910 -0.139644 0.078788 -0.242654 -0.180404 -0.233586 0.257956 -0.050378 -0.496825 0.080671 -0.315469 0.031136 0.508248 0.028763 0.282251 0.030660 -0.221275 -0.064135 0.104900 -0.399161 -0.258834 0.211886 0.131609 -0.247506 0.129137 -0.148581 0.063664 0.139031 0.410648 -0.304255 0.128717 -0.014989 0.088660 -0.931865 0.338186 -0.792424 -0.278241 -0.201553 -0.295098 0.039213 0.176684 -0.217040 0.034536 -0.020457 -0.094888 0.000140 0.324595 0.576028 0.280482 0.087316 -0.075139 0.157946 0.113118 -0.138067 0.303889 -0.182889 0.325920 -0.118789 0.021385 -0.066196 -0.214258 0.167038 -0.078172 0.137676 0.331443 -0.253783 -0.070255 -0.188829 -0.027639 0.034075 0.189373 0.122356 -0.081817 0.485458 -0.258305 0.527381 -0.245128 -0.282097 0.150395 
268 0.015412 -0.090057 0.025329 -0.115600 0.033280 -0.007539 -0.517924 -0.347680 0.320232 0.399653 -0.072960 -0.176888 -0.204557 -0.078840 -0.198538 0.271387 0.008785 -0.426980 0.263335 0.087484 -0.072816 -0.036096 -0.234575 -0.460964 -0.042214 0.179910 -0.260589 -0.202652 -0.061025 -0.009041 0.066977 0.126464 0.066566 -0.236334 -0.029520 0.428989 0.271002 0.140375 -0.175048 -0.943190 -0.044649 0.041790 0.321221 -0.384229 -0.067870 -0.199832 0.348463 -0.034096 -0.166262 0.014453 0.379129 -0.276304 -0.191242 -0.082655 0.213617 0.050290 0.203067 -0.048599 -0.052422 0.115967 0.083978 0.112904 -0.245196 0.156291 0.220291 0.223409 -0.125264 -0.302770 -0.023381 0.348140 -0.297995 0.386927 -0.405991 -0.003813 0.117882 -0.306052 0.017082 -0.300301 0.317314 0.128166 0.211941 -0.332984 -0.573349 -0.036112 -0.088547 -0.135197 0.280531 -0.079093 -0.156031 -0.157577 0.074410 0.048341 0.147396 0.314955 -0.209348 -0.000541 0.485059 0.461195 -0.607726 -0.437213 0.425188 0.345626 -0.090835 0.396106 -0.371815 -0.061140 0.182384 -0.597227 -0.029511 0.403836 -0.062792 0.068341 0.031507 0.332603 0.099785 0.484863 0.192801 -0.079329 0.204633 -0.300232 0.225458 0.058525 0.346432 -0.259807 0.217168 -0.068732 0.228709 0.173407 
655 -0.073845 0.274767 -0.228569 -0.147195 0.218039 -0.246693 -0.084072 -0.469943 0.320624 -0.076172 -0.307831 -0.153312 0.048004 -0.097265 0.061767 -0.299812 -0.043752 -0.188532 0.557400 -0.021649 -0.154769 -0.161783 0.011527 -0.057988 0.407629 -0.119823 -0.206045 0.186221 -0.027208 0.384623 0.117054 -0.002522 0.016882 0.048614 -0.139897 0.521691 -0.230380 -0.162693 -0.171253 -0.472032 -0.158179 -0.323584 0.149642 -0.379966 0.158659 0.114043 -0.186319 0.257489 -0.265461 -0.103681 0.197050 -0.273969 -0.081206 0.043625 0.105157 -0.050352 0.199737 -0.101186 0.057293 0.311248 -0.260278 -0.111903 0.618778 -0.152890 0.081785 0.256772 -0.121448 -0.105269 -0.196548 -0.188013 -0.555347 0.142006 0.392239 0.181508 -0.090772 0.129503 0.154852 -0.102367 0.104446 -0.321581 -0.288961 0.164773 -0.545276 -0.055170 0.252689 -0.313958 0.055922 -0.140251 0.289728 0.525038 -0.229877 0.017586 -0.209817 0.221590 0.091516 -0.030123 0.395284 0.076259 0.129607 -0.106608 0.108565 -0.001015 0.257332 -0.049546 0.249564 -0.043846 -0.079759 0.323351 -0.171932 0.254450 0.040052 0.258860 0.085319 0.267513 0.155713 -0.146616 -0.083595 -0.231836 -0.257227 -0.105971 -0.127258 0.202263 0.064493 -0.064467 0.144907 0.089319 -0.220307 -0.229941 
496 -0.180686 0.231757 0.023243 -0.275746 -0.060867 -0.269749 0.009946 -0.387722 0.183495 -0.075261 0.093924 -0.547786 0.245213 0.134844 -0.136011 -0.299773 0.181130 0.418371 0.192385 -0.282286 -0.006482 -0.118456 0.387823 0.076494 0.011809 0.036944 0.170707 -0.312852 -0.198947 -0.184208 -0.143314 -0.279964 0.032318 -0.183594 0.171569 -0.169344 0.019745 -0.125529 -0.111583 -0.205300 -0.040487 0.012666 -0.272186 -0.127117 0.190193 -0.248067 0.016704 -0.026359 -0.016306 -0.188984 -0.071353 0.185013 0.267695 -0.528500 -0.020569 -0.153035 -0.150741 -0.202851 -0.395205 -0.167642 -0.274232 -0.055344 -0.007460 0.058002 0.135035 -0.012941 0.072902 0.108924 -0.012715 -0.248083 -0.172716 -0.159483 -0.027697 0.004065 -0.082465 -0.219304 -0.039951 -0.152829 0.230018 0.084863 0.111413 -0.324428 -0.749163 -0.165611 -0.239420 0.017379 -0.173959 0.229889 0.046650 -0.155637 -0.179573 0.239800 -0.352593 0.067756 0.172539 -0.237841 -0.019998 0.115629 0.361028 -0.063031 0.155872 -0.258545 -0.043172 -0.104230 0.424645 0.053835 -0.406955 -0.251712 0.303028 0.002121 -0.044717 -0.301896 0.018933 -0.003153 -0.021179 0.353815 0.033682 -0.281628 -0.032602 -0.161408 0.668693 0.005652 0.366240 -0.170817 -0.447063 0.222146 0.153897 0.375473 
333 0.140536 0.025919 0.211429 0.531988 -0.355096 0.126387 -0.031221 -0.289394 0.110436 0.317294 0.115770 0.350461 0.306162 0.156717 0.028170 0.116105 0.333637 0.266557 0.326425 0.622410 0.215850 0.148631 -0.324725 -0.099146 0.306207 -0.161932 -0.017338 -0.179604 0.038038 0.001185 0.281029 0.185252 0.022449 0.255541 0.702212 -0.098095 -0.157884 0.346775 0.153328 -0.327840 -0.362996 -0.190355 -0.186109 -0.398088 0.038613 -0.095130 0.054481 0.263425 -0.218228 0.113118 0.086768 0.258917 0.005955 -0.068220 -0.212158 -0.024836 0.325923 -0.202028 0.242175 -0.077921 0.026526 0.683011 -0.305643 0.347443 -0.230546 -0.271667 0.031894 0.030819 -0.101717 -0.128992 0.103381 0.328927 -0.131093 0.116734 -0.096847 0.071122 0.487957 0.194475 0.203685 0.045928 0.014869 -0.245005 -0.797829 -0.350376 0.213223 0.014204 0.082517 0.132794 0.143756 0.092396 0.201561 -0.505183 -0.180900 -0.452257 0.018720 0.149024 0.622667 -0.002827 -0.108680 0.126075 -0.021965 -0.080470 -0.125483 -0.133531 -0.429949 0.056386 0.211580 -0.250510 0.379869 0.031813 0.348459 0.140596 -0.523487 0.216109 0.241585 -0.408971 0.265001 0.070393 -0.300711 -0.330769 -0.153457 -0.034996 0.396045 -0.346523 -0.002879 0.098740 0.027560 0.002076 
427 -0.177459 0.027039 -0.040670 -0.182046 -0.047418 0.191162 0.113617 0.028211 0.088876 0.396861 -0.191744 -0.355982 0.472994 0.291190 -0.143326 0.191054 -0.088123 0.083850 0.069750 0.167681 0.406954 0.404970 -0.136346 -0.243195 0.091158 0.029052 -0.023594 0.072150 0.172078 0.340997 -0.381173 0.249610 0.024503 0.269275 0.310122 0.353389 0.372056 -0.173375 0.237880 -0.150040 0.405479 0.135767 -0.183689 -0.189403 0.026466 0.369256 0.261489 0.116432 -0.004305 -0.457230 -0.112761 -0.341044 0.036989 -0.363529 0.327722 0.034578 -0.297935 -0.050277 0.182558 0.196417 0.064315 -0.094483 -0.343645 0.213761 0.246761 0.179085 -0.425842 -0.244940 0.162062 -0.070229 0.091541 0.010863 0.214159 0.088220 0.031725 -0.529178 0.044799 0.272361 0.461236 -0.171701 -0.261069 0.350762 -0.800881 -0.205561 -0.459784 -0.076241 -0.035391 0.100873 0.194316 0.020554 -0.074516 0.087271 0.148122 -0.329679 -0.046946 -0.030255 -0.318596 0.167093 -0.037839 -0.182618 -0.483620 0.217149 0.303029 0.208708 0.324037 -0.168731 -0.188511 0.135573 -0.037062 -0.188594 0.252613 0.323475 -0.072546 0.044870 -0.307258 0.151518 -0.135639 0.249394 0.006165 0.132063 0.143135 -0.064524 -0.228645 -0.369728 -0.103794 -0.209053 -0.307140 -0.004877 
125 -0.106785 -0.028682 -0.098549 0.121967 0.534262 0.120798 0.203307 -0.339314 0.159551 0.173099 0.011794 -0.085318 0.459257 -0.071299 0.191040 -0.104907 -0.190776 -0.281152 0.280789 0.156062 0.228717 0.042875 0.085852 0.036454 0.278371 -0.060677 -0.245176 -0.205987 0.037975 0.121757 0.355742 0.112120 -0.054613 0.072340 0.007327 -0.090007 0.185105 -0.067822 -0.187045 0.354216 0.580304 0.045256 0.015326 -0.423517 -0.021909 0.091670 0.120774 -0.610690 -0.394152 -0.000614 0.067793 0.117843 0.098459 0.072256 -0.245407 0.030542 -0.272994 -0.154959 -0.122215 0.243106 0.095459 -0.058136 0.263260 0.156569 -0.297415 0.242571 -0.373214 0.151586 0.091368 -0.043563 0.131876 -0.044021 0.193876 -0.091464 -0.147997 -0.053379 0.117312 0.282805 -0.065235 0.456190 0.155398 0.072935 -0.464386 0.037774 0.009259 0.252549 -0.178360 0.143961 0.250420 0.287796 0.235705 0.201474 -0.256603 -0.181134 -0.277239 0.234571 -0.277228 0.023898 -0.232296 0.179328 0.197654 0.370816 -0.164759 -0.172189 -0.107953 0.156532 -0.129078 -0.228473 0.246104 0.124838 -0.092284 -0.036653 0.084578 0.088212 -0.310077 -0.220629 -0.092684 -0.193235 0.200153 -0.269747 -0.061898 0.079863 0.361432 0.142898 0.555312 -0.088230 0.351930 -0.157916 
118 -0.200211 -0.385941 -0.104037 -0.102180 -0.170770 0.196021 -0.354552 -0.205912 0.063326 -0.126979 0.242660 -0.265953 0.120995 0.049644 -0.113411 -0.368531 -0.483803 0.085040 -0.051974 0.305824 -0.072456 0.225441 -0.013529 -0.075812 0.146892 0.243407 0.293377 -0.259948 0.145966 -0.130159 -0.154338 0.328711 0.133677 -0.278972 -0.369493 0.165423 0.317761 -0.077844 0.590103 -0.033169 0.047884 -0.260616 -0.593270 -0.130717 -0.056078 -0.364616 0.117142 0.366441 -0.247916 -0.063308 0.178497 0.150299 -0.215827 -0.011438 -0.046480 0.279650 -0.128905 0.287667 -0.228521 0.076702 0.205016 0.334746 0.025969 -0.023970 -0.131042 -0.182194 0.267304 0.184830 -0.201106 0.057380 -0.100681 0.395311 -0.407295 -0.324053 0.151148 0.079670 -0.039913 -0.046424 0.113465 -0.064220 0.067809 -0.031078 -0.733543 0.218532 0.257931 -0.069936 -0.394655 0.040950 0.573764 -0.171019 0.129469 -0.074624 -0.293387 0.021283 -0.297546 0.121387 -0.101197 -0.239235 0.068201 -0.143041 0.185612 0.127849 0.139488 0.030093 0.072201 0.108522 0.157098 -0.314507 -0.054611 -0.070335 -0.204871 -0.129707 0.110957 0.384456 -0.446736 0.285730 -0.120908 0.311980 -0.132226 -0.179955 0.012314 0.102305 -0.099501 -0.055374 0.084763 0.324778 0.045993 0.042798 
265 0.163749 0.164787 0.220235 -0.014973 -0.147290 -0.109444 -0.236445 -0.252780 -0.339200 0.015476 -0.149309 -0.095350 0.381143 0.109842 -0.319117 -0.035477 0.162900 -0.350151 0.136147 -0.078012 -0.059357 0.158478 -0.019185 -0.174088 -0.098697 -0.075997 0.006558 -0.568682 -0.029971 -0.196630 -0.143379 0.173607 0.604546 0.350870 -0.061069 0.001142 0.117078 -0.177665 -0.273711 -0.328304 -0.188541 0.098101 0.082459 -0.035996 -0.277929 0.348119 -0.043322 -0.327383 -0.074452 0.262198 -0.077191 -0.113397 0.458117 0.013362 -0.228092 -0.210367 -0.257775 0.149493 0.355483 0.063139 -0.198480 -0.050094 0.483922 -0.103911 0.297764 0.182879 0.489047 0.061233 0.194401 -0.147064 0.031101 -0.106178 0.252829 -0.465007 -0.237220 -0.072989 0.061743 0.097160 -0.052153 0.156058 0.175524 -0.259212 -0.759383 0.045166 -0.451450 0.032957 -0.230421 -0.015141 0.116210 -0.237616 -0.259471 -0.402183 0.154680 0.180767 0.220088 -0.177854 -0.038649 0.120467 0.460349 -0.441998 0.033261 -0.588187 -0.010931 0.002393 0.257426 -0.306494 -0.296622 -0.026982 0.156179 -0.035787 0.019816 -0.045026 -0.044761 0.312648 -0.007114 0.006336 0.018761 0.023410 -0.023609 -0.036444 -0.145788 0.073730 0.192938 0.365858 -0.110436 -0.368207 0.258251 -0.237757 
